330 100
sent_0 -0.126183 0.083997 -0.098099 -0.047186 -0.075481 -0.042025 -0.065412 0.018831 0.018630 0.097933 -0.097880 -0.195146 -0.032767 0.050906 0.162444 -0.161555 0.118635 -0.018686 0.131597 -0.099587 0.087384 -0.197032 0.203682 0.117767 0.086385 -0.255840 0.124619 0.001382 -0.098998 -0.174153 -0.202857 -0.035177 -0.177540 0.081872 0.126084 -0.015308 0.175705 -0.066943 -0.129678 0.191192 -0.187722 0.068429 -0.052558 0.122831 -0.094811 -0.053723 0.088828 -0.012581 -0.260979 -0.010147 0.104422 0.087127 0.067649 0.076513 -0.085113 -0.016775 0.161335 -0.077712 -0.102191 -0.291800 -0.107489 -0.022930 0.224695 -0.200768 -0.012410 0.079217 -0.064859 -0.161184 0.102945 -0.020044 0.087406 0.012110 -0.073734 -0.043075 0.042254 0.169559 -0.320873 -0.220810 0.041746 -0.301756 -0.070702 -0.052263 -0.060929 0.200980 0.026900 0.106865 0.037327 0.017795 0.124468 0.107135 -0.349975 0.271433 -0.016949 -0.234533 -0.244780 -0.240333 0.137439 -0.334999 0.016280 0.074875
sent_1 0.035101 -0.032612 0.151612 0.213856 -0.098759 0.128353 0.081155 -0.006986 0.107311 -0.023728 0.086962 0.027055 -0.070322 0.076540 -0.148786 -0.123599 0.230031 0.015255 -0.061691 -0.031458 -0.058728 -0.037797 -0.081267 0.146405 0.071585 -0.096600 -0.098351 -0.035327 0.003742 0.035949 0.012387 0.038177 0.091787 -0.001408 0.178772 -0.212535 -0.013819 0.042525 -0.068295 -0.029672 -0.121086 0.052051 0.084024 0.151018 0.006829 -0.155842 0.093266 0.186313 0.144952 0.055553 0.082673 0.238594 0.116647 0.003420 -0.093237 -0.008349 -0.054495 0.050221 -0.029720 -0.139271 -0.053837 -0.056898 -0.073439 -0.210800 -0.156129 -0.216805 -0.066125 0.059194 0.114227 0.129074 0.268013 0.030050 -0.153039 0.019923 -0.078441 0.004237 -0.044712 -0.252462 0.023571 0.137263 0.103870 -0.075484 0.297132 0.120815 -0.021657 0.037638 0.135104 0.253000 -0.041392 -0.092967 0.023917 -0.001820 0.006144 0.105356 -0.045862 -0.047970 0.068146 0.129253 0.054243 -0.294881
sent_2 -0.169078 0.139294 0.204811 0.170194 -0.133182 0.228061 0.291268 -0.068577 -0.096250 0.290334 0.098204 -0.171693 0.237380 -0.101795 -0.020994 0.091239 -0.027808 -0.052410 0.181022 0.109122 0.152586 -0.114749 0.141045 -0.104134 0.183942 -0.308474 -0.062925 0.101458 0.206877 0.079313 0.019356 -0.233634 -0.197774 0.245688 0.233921 0.197785 -0.015051 0.178887 -0.020255 0.011699 -0.036804 0.349105 0.171076 -0.033474 0.250706 -0.146370 0.034546 0.187588 -0.314560 0.179695 0.049859 0.147344 0.099131 0.050731 -0.114383 -0.068755 0.221403 0.224800 0.242283 -0.158782 -0.438938 -0.035125 -0.108545 0.149003 -0.251000 0.054837 0.176433 0.143886 0.018014 0.121185 0.525039 0.239702 0.001303 -0.231539 -0.154367 -0.020338 0.094355 -0.283729 -0.374218 0.198930 0.285211 -0.453526 0.175855 0.218740 0.212138 -0.138101 -0.255768 0.338262 -0.157428 0.171981 -0.072151 -0.188323 0.282894 -0.327412 0.169277 -0.097264 -0.012207 -0.294192 0.116528 -0.059187
sent_3 -0.144055 0.185399 -0.124127 -0.044458 -0.178477 -0.058886 0.388509 0.129680 0.275701 0.063255 0.093758 -0.027010 0.131278 -0.195165 0.107527 0.011739 0.344267 -0.096651 0.179001 0.002379 0.179658 -0.107447 0.151561 0.063799 -0.039809 -0.070734 0.060015 -0.008229 0.014188 -0.036267 -0.011054 -0.138229 0.016036 0.017120 0.022535 0.035567 0.056177 0.039499 -0.018595 0.266161 0.024074 0.059477 -0.005599 0.382772 -0.122760 -0.110918 -0.273459 0.222471 -0.238677 -0.035624 -0.005349 0.012752 0.154322 0.226237 -0.054464 -0.061740 0.408587 0.084953 -0.132687 -0.058409 -0.130093 0.232585 0.163437 0.099273 0.045362 0.141568 -0.298577 -0.211433 0.259923 0.341417 0.220401 0.123609 -0.016189 -0.110238 -0.056126 -0.095197 -0.107666 -0.116264 0.030799 0.009289 -0.033938 -0.151586 0.067631 0.170267 -0.140247 -0.050285 0.211865 0.235710 0.060279 0.181205 -0.222539 0.061869 -0.024567 -0.068053 -0.189927 -0.093667 0.145512 -0.222114 -0.052221 0.078583
sent_4 -0.090308 -0.272485 -0.074526 0.121348 0.380659 0.070735 0.295751 0.045900 -0.088169 -0.358039 -0.043908 0.163948 0.223397 -0.077212 -0.027934 0.136319 0.142898 -0.118345 -0.277254 -0.186371 -0.060970 -0.124113 -0.209283 -0.171318 -0.193632 -0.087077 0.219180 0.060316 -0.025507 0.193242 0.212505 -0.016849 -0.092562 0.110821 -0.119698 0.084267 0.096279 0.096638 0.031406 0.145006 0.044589 0.386203 -0.156172 -0.126384 0.131935 0.061601 0.020066 0.273104 0.028036 0.101972 -0.398656 0.032069 0.276219 -0.125409 0.072039 -0.015820 0.011978 0.182437 -0.077683 -0.053466 -0.158976 0.219852 -0.268045 -0.031418 -0.266431 0.059176 0.161053 0.111737 0.070538 -0.130591 0.166661 -0.144326 -0.076146 -0.450601 -0.187697 0.223498 0.278496 -0.228046 0.173698 -0.118423 0.037820 0.029568 -0.053976 -0.090194 0.257881 -0.069856 -0.216962 0.097596 -0.015332 0.175550 0.164891 -0.004847 0.017476 0.175582 0.160514 0.131634 0.068585 -0.077700 0.051296 -0.056629
sent_5 -0.067674 -0.096048 -0.054114 -0.120927 0.144755 -0.144355 0.289338 -0.112944 -0.335639 -0.018553 0.082915 0.043648 0.105951 -0.141043 0.183601 0.154860 0.238806 -0.235512 -0.019095 -0.194795 0.093346 0.036822 -0.047533 -0.109212 0.087444 -0.285800 0.138385 -0.060201 0.010635 -0.025211 0.128471 -0.125357 -0.082072 0.104276 -0.034367 -0.167112 -0.049675 0.341952 0.142466 0.025164 -0.214861 0.238828 0.118570 -0.033670 0.026678 0.251390 0.093614 0.066773 -0.269888 -0.077680 0.169363 -0.148882 0.096492 -0.076402 0.058090 -0.077658 0.156704 -0.138125 -0.148882 -0.084731 -0.214968 -0.116161 0.171320 0.258549 -0.015169 0.284283 -0.072928 -0.048193 0.197467 -0.127090 0.378244 0.071883 -0.217134 0.036093 0.163839 0.122798 -0.092882 0.259302 -0.157988 -0.092655 0.084875 -0.277748 0.064460 0.264749 0.216848 0.178339 -0.019332 0.027244 -0.057493 0.248915 0.169574 -0.015875 0.182039 -0.015771 -0.107668 -0.124750 -0.035292 0.098990 -0.039861 -0.142839
sent_6 0.110720 0.217662 -0.163019 -0.279439 -0.385010 0.036947 0.338096 0.000036 0.079549 -0.137575 0.030425 -0.350833 0.123449 -0.271082 0.106196 0.102128 0.281754 0.310635 0.004031 -0.105563 0.009566 -0.098593 0.012787 0.101576 -0.119551 -0.265906 -0.070476 -0.123524 0.168114 -0.032495 -0.205527 0.079721 -0.086636 0.000815 -0.014191 0.018111 0.162551 0.173351 -0.071430 0.343860 -0.015484 0.008073 0.004284 0.040350 -0.077504 0.037127 0.099334 0.280536 -0.173707 -0.223591 -0.039909 0.004172 -0.030832 0.153810 -0.055318 0.137370 0.533237 0.110058 -0.071894 -0.301855 -0.144509 0.126712 0.029035 0.015996 -0.112066 0.283470 -0.336802 -0.198276 0.112251 0.370472 0.402254 0.321313 -0.180185 0.068836 0.083205 0.036564 -0.353503 -0.129284 -0.133436 0.022827 -0.170725 0.001097 0.385515 0.081223 -0.156333 0.046064 -0.010404 0.056209 0.195323 0.095622 -0.146938 0.253478 -0.311688 -0.208875 0.034544 -0.059890 0.094960 -0.155268 0.250436 0.190383
sent_7 -0.079409 -0.019028 -0.004675 0.157881 -0.198568 0.162668 -0.017990 0.001811 0.242616 0.081109 -0.021358 -0.297169 0.134688 -0.139530 0.153200 -0.003774 -0.269293 0.133777 -0.068730 0.060470 0.223108 -0.226538 -0.237469 -0.055339 0.064262 0.047369 -0.231031 0.109581 0.166349 0.230950 -0.026778 0.251792 0.066721 0.131204 0.019576 -0.052012 -0.021697 -0.112354 0.050504 0.165977 -0.309224 0.081272 -0.117594 0.223759 -0.209048 -0.115217 -0.131897 0.001677 -0.130994 -0.104216 -0.215762 -0.126285 -0.049241 -0.114616 0.033057 -0.115181 -0.051521 0.074599 -0.078148 0.113127 0.160107 -0.297029 -0.104925 -0.125862 -0.114876 0.221118 0.027146 -0.101089 -0.117542 -0.059389 -0.093225 0.017170 -0.227793 -0.010699 -0.054857 -0.008327 0.017371 -0.042143 -0.009508 0.039154 -0.049520 -0.211133 0.075536 0.059189 -0.107595 0.030511 0.054239 -0.239451 0.073663 -0.063845 -0.234206 -0.002800 -0.135751 -0.008942 -0.034351 0.186036 0.088810 -0.102196 0.382857 0.251364
sent_8 0.000326 -0.300976 0.032664 -0.070357 -0.302923 -0.012973 0.290495 0.079884 0.468320 0.290378 0.263182 -0.340660 0.148594 0.095540 -0.088673 0.118726 0.162909 0.206744 0.034861 -0.712143 -0.011070 0.211166 -0.031515 -0.143082 0.137718 0.035797 -0.121234 -0.311064 0.073211 -0.156160 -0.150819 0.251772 0.084770 -0.055458 -0.038992 -0.291905 -0.068811 -0.387340 -0.448265 -0.196473 -0.441034 0.321234 0.229874 -0.139685 -0.238607 -0.104409 0.097483 0.029507 -0.109961 -0.045480 0.043643 0.096155 -0.296580 0.048053 -0.415652 0.162470 0.044997 0.161034 -0.266321 -0.231279 -0.135505 -0.163963 0.023932 -0.238255 -0.544839 -0.307532 -0.312090 -0.126721 0.287876 -0.105203 0.061894 0.096603 -0.315197 -0.152147 -0.271671 0.121599 -0.069221 -0.357322 -0.445259 0.141010 -0.008274 -0.448523 0.066834 -0.044322 0.067710 0.117738 -0.023676 -0.437663 -0.104710 -0.396861 0.124685 0.062114 -0.114464 -0.178481 0.067669 -0.169256 0.721261 -0.064525 -0.015269 -0.476504
sent_9 -0.057035 -0.013098 -0.104448 -0.267546 -0.304641 -0.005629 0.043024 0.042315 -0.038656 -0.044839 -0.030894 -0.110485 0.045510 -0.006401 0.098750 0.013997 0.033013 0.066769 0.150226 -0.172976 0.072784 -0.249379 0.048417 0.047403 0.179707 -0.118881 0.097004 -0.132534 -0.033390 -0.077489 -0.295510 -0.066041 -0.090432 -0.010847 0.039345 -0.239947 0.335895 0.108368 -0.102057 -0.021769 -0.243722 0.035414 -0.073297 -0.003777 -0.234531 -0.175293 0.255370 0.033173 -0.247680 -0.087985 0.118117 0.295838 0.051597 0.036902 -0.023397 -0.131806 0.264680 -0.143964 -0.224602 -0.262489 -0.076083 0.249530 0.283297 -0.041370 -0.121909 0.111772 -0.273605 -0.077669 0.148000 0.171940 0.088498 -0.041618 -0.099171 -0.052036 -0.000379 -0.040267 -0.100084 -0.173786 -0.132773 -0.169250 -0.023997 -0.107324 0.133026 0.034697 0.151074 0.201284 0.144539 0.133652 0.059069 0.176653 -0.091021 0.248192 -0.164733 -0.382071 -0.118758 -0.117408 -0.004102 -0.040232 -0.069921 -0.033413
sent_10 0.119645 0.208977 0.240795 0.045222 -0.071188 -0.303183 -0.308668 -0.068469 -0.021127 0.095568 0.235227 -0.220876 -0.058561 -0.249933 -0.149223 -0.021936 -0.107060 -0.103779 0.135714 -0.197605 0.138256 0.672083 -0.286355 0.429067 -0.042024 0.244610 -0.069999 -0.299811 0.242488 -0.063335 0.141057 0.159656 0.068018 0.286111 0.628797 0.357188 -0.347842 0.172174 -0.144497 0.342176 0.439734 -0.070826 0.531770 0.244981 0.067256 0.087357 -0.314982 0.027349 -0.087234 -0.037479 0.104140 0.202203 -0.136155 -0.098725 0.151349 -0.213414 -0.099008 -0.845968 0.004028 0.298971 0.239918 0.207019 -0.096601 0.020236 0.128322 -0.045576 -0.228080 0.025691 0.301153 -0.225668 0.129112 -0.247469 -0.234082 -0.668269 -0.180402 0.217103 0.186723 -0.165248 -0.094315 -0.204473 0.343140 0.140193 -0.000735 0.095108 0.112398 -0.147254 0.560571 0.357054 0.144339 -0.026622 -0.215102 -0.050775 -0.301567 -0.386673 0.085573 -0.144332 -0.142908 -0.092120 -0.128425 -0.076580
sent_11 -0.044146 0.238033 -0.117329 0.047309 -0.003509 0.127693 0.069698 0.076068 0.127538 -0.044646 0.200296 0.082440 0.069869 -0.264819 -0.215389 0.027988 -0.088674 -0.202390 0.202704 -0.099025 0.186712 0.051774 0.038888 -0.304743 -0.208542 0.195809 -0.628124 0.007917 0.279212 -0.042320 -0.021362 -0.072735 -0.059174 0.162473 0.228149 -0.114544 -0.617725 -0.044363 -0.020296 0.169419 -0.246550 -0.238237 0.377595 0.250262 0.002494 -0.438980 -0.104357 -0.221498 -0.069394 0.049458 -0.121933 -0.247346 0.287928 -0.470761 -0.082492 -0.077624 0.359120 0.140299 0.379453 -0.097885 -0.209496 -0.121659 -0.203927 -0.094390 -0.008250 0.072693 -0.196537 -0.223979 -0.103159 0.112926 0.004343 0.164903 -0.306371 -0.058012 -0.403190 -0.067069 0.004643 0.017357 -0.238402 0.224012 -0.016065 0.314251 0.552406 0.111309 -0.013122 -0.149260 -0.014083 -0.050151 0.089927 0.123634 0.086037 -0.090776 -0.392222 -0.418298 0.481703 0.247754 0.495765 -0.138773 0.097994 -0.141642
sent_12 -0.140014 -0.382439 -0.220417 0.116973 -0.240657 -0.155416 0.147236 0.011530 0.582520 0.081526 -0.064825 -0.076518 -0.284895 -0.012652 0.024598 -0.381944 0.095038 0.347102 0.206764 0.123705 -0.118508 0.083990 -0.247680 -0.160298 0.732925 -0.403636 -0.045267 0.099950 0.602988 0.264716 0.122444 -0.142882 0.205231 0.397548 0.241332 -0.201180 -0.206029 -0.551579 0.016354 0.349367 0.030070 0.005459 0.185126 0.071827 -0.003269 0.179110 -0.370423 -0.019798 0.317479 0.067016 -0.194578 0.149861 -0.236575 -0.022200 -0.219807 0.121670 0.278518 0.370374 -0.097478 0.283574 0.475422 -0.080585 0.167537 -0.390486 0.124353 0.204864 -0.725145 -0.242019 -0.312585 -0.218165 0.277377 0.037857 -0.235735 -0.298266 -0.047001 0.315929 -0.380260 -0.172654 -0.263996 -0.024602 0.217910 0.405698 0.237351 -0.058421 -0.230743 0.127889 0.244333 -0.452493 -0.731055 -0.189088 0.025233 -0.362243 -0.272205 0.088854 0.404544 0.080787 0.561600 0.336854 0.216762 -0.241014
sent_13 -0.164976 -0.096211 0.193791 -0.095867 0.076770 -0.001065 0.215314 -0.028374 0.343620 -0.113144 -0.222420 -0.230881 0.145488 -0.395726 -0.092846 -0.095579 -0.007590 0.022631 0.000994 0.106584 -0.003559 0.096643 -0.132828 0.011795 0.033750 -0.206228 0.075679 0.178961 0.142923 0.048742 0.428020 -0.091675 0.210591 0.016907 0.102201 0.186947 -0.095414 -0.220039 0.157765 0.006933 0.214319 0.200880 0.197479 0.245727 -0.050325 -0.184780 -0.208402 -0.015991 0.173817 -0.145397 0.426004 0.249996 -0.143774 0.093302 0.065776 0.136888 0.357010 0.339445 0.309146 0.194272 -0.236662 0.261144 0.110010 -0.310740 -0.033248 0.087004 -0.408111 0.056311 0.036535 0.043900 0.201121 0.006383 -0.375749 -0.058404 0.148875 0.095616 -0.046959 0.032595 -0.250484 -0.098293 -0.028820 0.118062 0.241950 0.040560 -0.081132 -0.461594 0.094517 -0.094977 -0.412245 0.011438 -0.318192 -0.071292 -0.111483 -0.255771 0.218861 -0.045714 0.220642 0.719864 -0.073874 -0.087522
sent_14 -0.201393 -0.138311 -0.011004 -0.162086 0.149259 0.076481 -0.039146 0.095168 0.113797 -0.019724 -0.109512 -0.075853 0.075214 -0.362245 -0.104469 -0.031929 -0.164183 0.015375 0.018061 0.138618 -0.024933 0.005206 -0.113056 -0.186901 0.054454 -0.230318 -0.158761 0.128969 0.132007 0.017729 0.194362 -0.000972 0.080115 0.099620 -0.041971 0.094828 -0.042453 0.086783 0.058462 0.076448 0.256159 -0.106487 0.186478 0.122835 -0.091533 0.119690 -0.223454 0.209145 0.140069 0.060880 0.169588 0.051500 -0.007344 0.168113 0.131514 -0.018142 0.223973 0.041693 0.043355 0.042685 -0.038898 0.010438 -0.115517 0.051153 -0.078370 0.048048 -0.127812 -0.134403 -0.164620 0.021673 0.094245 0.019253 -0.287129 -0.247509 0.187157 -0.145897 -0.113029 0.140685 -0.042461 0.035694 -0.010469 0.072638 0.130487 0.161733 -0.109833 -0.343590 0.276810 0.054903 -0.114701 0.165223 -0.094810 -0.004351 -0.033574 -0.069225 0.063328 0.092747 0.106658 0.321587 0.057639 -0.264445
sent_15 -0.158924 0.037324 0.071894 -0.247318 -0.015797 -0.110497 0.018407 0.033093 0.234575 -0.204524 0.040495 -0.416676 0.066842 -0.038330 0.016147 -0.083805 0.183810 0.184286 -0.150105 -0.340494 0.018490 0.146528 0.075815 0.130491 0.206462 -0.074545 -0.088026 0.255746 0.183628 -0.076241 0.172923 -0.393397 -0.011995 0.299997 -0.129225 0.105041 -0.160906 0.112627 0.273293 -0.140270 0.038265 0.118787 0.347295 0.140764 0.133983 0.109548 -0.171082 0.103775 -0.100787 -0.347505 0.228098 0.104190 -0.043219 -0.040118 0.076977 0.162323 0.118265 -0.061905 0.224987 0.085946 -0.047244 0.203424 0.126945 -0.155116 0.003361 -0.159840 -0.244577 0.000096 0.252053 0.079860 -0.108720 0.056720 -0.173753 0.067548 0.100849 -0.370145 0.056346 0.105527 -0.293460 0.236725 0.194160 -0.085674 0.033091 -0.043392 -0.259029 -0.403623 0.202401 0.039660 0.019324 0.075277 -0.288447 -0.117820 -0.318724 -0.399102 0.133607 0.265090 -0.119796 0.008761 -0.122568 -0.675817
sent_16 -0.145769 0.088900 0.007739 -0.159064 -0.063073 0.141044 -0.007760 0.084780 -0.071542 0.005070 -0.308730 -0.065679 0.035854 0.208983 0.060581 -0.127888 -0.166073 -0.035869 -0.037006 -0.010826 0.136658 -0.069066 0.139162 0.103543 0.047915 -0.099893 0.031996 0.041256 0.104450 -0.319666 -0.190853 0.063683 -0.090291 0.121677 -0.089176 -0.324553 0.188944 -0.083816 -0.163233 0.048882 -0.078954 -0.030504 -0.048397 0.015463 0.047831 -0.153209 0.027613 0.073495 -0.017857 0.058227 -0.011493 0.019119 0.001834 -0.019607 0.006908 -0.021163 0.091268 -0.028971 -0.172891 -0.282829 -0.046970 -0.051370 0.198026 -0.351483 -0.143603 0.132083 -0.150093 -0.177909 0.183408 0.080605 -0.057064 -0.088518 -0.068960 -0.109090 0.001827 0.080074 -0.181798 -0.212689 -0.181602 0.026825 0.009958 0.138200 0.077729 0.132886 0.114327 0.127565 0.143218 -0.193915 0.119583 0.046612 -0.282976 0.193723 -0.099665 -0.157515 -0.142731 -0.242532 0.074850 0.043092 -0.141531 0.000904
sent_17 -0.045952 0.068718 -0.062737 -0.086742 -0.102444 -0.079453 -0.094495 0.095552 0.015967 0.042658 -0.014434 -0.143176 0.051751 0.085565 0.080444 -0.094903 -0.031479 -0.023401 0.004682 -0.182395 0.089678 -0.184770 0.231583 -0.004526 -0.009039 -0.129947 0.115089 -0.019465 -0.002635 -0.145931 -0.053821 0.001353 -0.097508 0.032145 0.004955 -0.193204 0.223138 -0.060217 -0.083655 -0.054442 -0.233837 0.018704 -0.013406 0.125966 -0.029390 -0.207319 0.173458 0.067655 -0.123517 -0.029309 -0.004156 0.099494 0.062802 -0.014861 -0.081632 -0.109843 0.114162 -0.086829 -0.132179 -0.211812 -0.072977 0.047909 0.054665 -0.175990 0.037476 0.084190 0.098442 -0.133963 -0.004591 -0.065852 0.053938 -0.013491 -0.171721 -0.024867 0.034946 0.094153 -0.193847 -0.193698 0.053499 -0.186306 -0.015680 -0.050616 -0.009592 0.090287 0.044679 0.081037 0.048986 -0.034209 0.067485 0.036009 -0.163914 0.258095 -0.060862 -0.151825 -0.317839 -0.299110 0.090311 -0.134750 0.029569 0.036683
sent_18 -0.176859 0.191887 0.114996 -0.165021 -0.261033 -0.242912 0.056035 0.044766 -0.024815 0.135387 -0.230804 -0.413181 0.088336 0.123830 0.022201 -0.176784 0.021116 -0.033852 -0.082260 -0.065445 0.138700 -0.181101 0.210230 0.025311 0.128825 -0.079224 0.011497 0.022606 -0.094456 -0.037599 0.044830 0.194165 -0.101442 0.006749 0.051445 -0.164265 0.170500 -0.182796 0.063906 0.104764 -0.199408 0.100974 0.088835 0.001714 -0.172854 -0.179350 0.193152 -0.037931 -0.019498 -0.043666 0.051220 -0.056994 -0.049353 0.039942 -0.349633 0.112414 0.118521 -0.051178 -0.224820 -0.112340 -0.166837 0.053245 0.019459 -0.090246 -0.012223 0.115366 0.076022 -0.106544 0.207474 0.080893 0.219612 0.047422 -0.237669 0.182079 -0.119539 0.028685 -0.131442 -0.210387 0.136048 -0.396398 -0.059000 -0.133261 0.022990 -0.049664 -0.182346 -0.047431 -0.028200 0.216304 -0.116010 0.024568 -0.149632 0.430326 0.134450 -0.341718 -0.230046 -0.216829 -0.062611 -0.156202 -0.001328 0.045672
sent_19 -0.118205 -0.042038 -0.146776 -0.259623 -0.229108 0.065438 -0.128033 0.119141 0.049308 -0.183025 -0.086176 -0.178914 -0.045160 0.059756 0.151511 -0.103294 0.256835 -0.045293 0.075332 -0.047123 0.185431 -0.158190 0.252254 -0.021565 0.146466 -0.261403 0.058499 0.026201 0.027424 -0.223729 -0.180567 0.152742 0.103761 -0.079128 -0.001229 -0.359006 0.238805 -0.315073 -0.107478 -0.169332 -0.242808 0.074442 -0.054337 0.144388 -0.041853 -0.190206 0.214404 0.074684 -0.099134 0.028469 0.072369 0.184567 0.144037 0.167690 -0.099942 -0.007846 0.276944 -0.060684 -0.153250 -0.393095 -0.175661 0.153243 0.144753 -0.292134 -0.070368 0.116118 -0.108053 -0.238089 0.224439 -0.029081 0.071992 0.120737 -0.157862 0.045013 0.146025 0.222815 -0.316468 -0.206590 0.051667 -0.179594 0.075297 0.146775 0.253123 0.188923 -0.010734 0.131353 0.068312 0.117765 0.193840 0.001975 -0.448112 0.137989 -0.209428 -0.373800 -0.428905 -0.482466 0.152442 -0.472590 0.012419 0.048101
sent_20 -0.059404 0.054243 -0.108933 -0.106729 -0.264415 0.126368 -0.086821 -0.003786 -0.148224 0.172687 -0.005323 -0.422528 0.066330 -0.098220 -0.029227 0.053949 0.361578 0.097626 -0.042908 -0.222512 -0.082485 -0.344821 0.036758 0.182703 -0.023593 -0.309037 -0.009813 0.029653 0.063316 -0.185268 -0.025937 0.095550 0.214884 -0.062275 0.165707 -0.338665 0.069713 -0.067058 -0.252562 -0.097492 -0.221454 0.163666 -0.176598 0.077187 -0.171204 -0.139823 0.103558 0.107678 -0.032000 -0.105854 -0.026222 0.161175 -0.013075 -0.041424 -0.097105 -0.074273 0.244960 0.052895 -0.255095 -0.435671 -0.032727 0.064246 -0.126293 -0.357308 -0.020646 0.042337 -0.137932 -0.132371 0.197596 -0.115202 0.332996 0.096502 -0.225080 0.022411 0.107820 0.135451 -0.169563 0.043627 0.099074 -0.056299 -0.046187 -0.114925 0.132697 0.160586 -0.086929 0.329470 0.011592 0.185352 0.055519 -0.075108 -0.263934 0.113473 -0.041072 -0.486500 -0.365437 -0.493978 0.018749 -0.285491 -0.062695 0.109674
sent_21 -0.148798 0.133619 0.112727 -0.023436 -0.313689 -0.022735 0.019994 0.200179 -0.019616 -0.138566 -0.020886 -0.257698 0.021764 0.030222 0.098749 -0.201725 0.185551 -0.004767 0.199211 0.289548 -0.059029 -0.126394 0.202480 0.292229 -0.052336 -0.259672 -0.013924 0.119540 -0.110782 -0.024244 0.076560 -0.004063 0.013080 0.066520 0.057826 -0.106657 0.102879 -0.114009 -0.050141 -0.078990 -0.219549 0.164178 0.135849 0.252811 -0.052894 -0.051917 0.093915 -0.005106 -0.172552 -0.108663 -0.000891 0.202797 0.032874 0.007944 -0.210955 0.057670 0.025070 -0.175179 -0.155325 -0.366096 -0.068814 -0.115632 0.121822 -0.060113 -0.056647 0.188272 -0.433549 -0.212298 0.130046 0.089270 0.308837 0.077394 -0.081815 -0.156043 0.165011 0.211641 -0.449072 -0.215784 0.132316 -0.005642 -0.110394 0.005495 0.233848 0.304864 -0.024288 0.050741 0.170911 -0.119878 0.199218 0.071905 -0.596941 0.302320 -0.241102 -0.528895 -0.070712 -0.240372 0.029848 -0.137836 -0.049519 0.029431
sent_22 0.169876 -0.051920 0.088712 -0.066724 -0.208585 0.319537 -0.511847 0.007256 -0.096686 -0.185766 0.040208 -0.128195 0.023169 -0.090289 0.005427 0.053293 0.297180 -0.003529 0.101341 -0.236656 -0.037006 -0.009738 -0.197309 0.049695 0.093231 -0.233483 0.073289 -0.281981 -0.118621 0.064226 0.173762 0.078812 0.169086 -0.021650 -0.324201 -0.379370 -0.062849 -0.293322 0.149330 -0.075018 -0.324161 0.253715 0.246094 0.093716 -0.409584 0.025507 0.286011 0.094530 -0.312400 -0.053198 0.054716 0.415846 0.049112 -0.168272 -0.027627 0.179192 0.106656 -0.147025 0.066449 -0.322111 -0.323880 -0.174668 0.035875 0.059604 -0.278074 0.247307 0.224671 -0.215209 0.018417 0.171598 0.229157 -0.246582 -0.134130 0.038056 -0.118819 0.524532 -0.176090 -0.492582 0.227076 -0.001723 0.021344 -0.296364 0.185198 -0.187651 0.011063 -0.090426 -0.175766 -0.066778 -0.174329 0.226934 -0.415253 0.428297 0.180899 0.249561 -0.460255 -0.199974 0.115533 -0.063131 -0.214624 0.102467
sent_23 -0.013477 0.164572 -0.013620 0.223348 -0.283662 0.171591 0.332753 -0.123167 -0.074325 -0.126283 0.015249 -0.239629 0.212379 0.060388 0.475487 -0.125465 0.450660 0.105572 0.232711 0.193206 0.034010 -0.068953 0.017678 0.104841 -0.025140 -0.418496 0.148962 -0.076362 0.106935 -0.044464 0.119144 0.001392 0.093262 0.173329 0.189588 0.148376 -0.105460 -0.254236 -0.032413 0.188776 -0.280690 0.242569 0.085064 0.312686 0.071003 0.195314 -0.101914 0.370151 -0.005140 -0.214035 0.489834 -0.106053 -0.105411 -0.113480 -0.119638 0.034560 0.070451 -0.096959 -0.231751 -0.136785 -0.095600 -0.316198 -0.051180 -0.077665 -0.293229 -0.015377 -0.107438 -0.183060 -0.016471 -0.216222 0.355500 0.117380 -0.331388 -0.259399 0.106594 0.067857 -0.141339 -0.315027 0.077553 -0.264058 0.035294 -0.313672 0.313342 0.012999 0.072756 -0.036957 -0.165608 -0.093077 0.035458 0.037752 -0.335818 0.170830 -0.273244 -0.285683 -0.035866 -0.070826 -0.155606 -0.178005 0.102986 0.040317
sent_24 -0.261692 -0.251384 -0.469647 -0.093074 0.155332 -0.123212 -0.153749 -0.158843 -0.326085 -0.390686 0.317935 -0.173935 -0.021536 0.374138 -0.179961 -0.205069 0.109498 0.094702 -0.154529 0.182267 -0.065136 -0.137788 0.118996 0.243445 -0.385005 -0.125074 -0.138486 -0.609371 0.304271 -0.148399 0.373251 0.038136 0.187782 -0.298408 0.003436 -0.323656 -0.158966 0.205324 0.042326 -0.490482 -0.063644 -0.445793 0.022760 -0.500373 0.075459 -0.588733 0.222226 -0.120544 -0.172199 0.248671 0.179840 0.199207 -0.002578 0.150022 -0.094557 -0.273727 -0.058661 -0.461121 0.225762 0.420609 -0.314486 0.228489 0.029562 -0.051633 -0.235354 0.130465 -0.362656 -0.282759 -0.152653 -0.100447 -0.333651 -0.003154 0.103882 0.086716 -0.436020 0.046350 0.092895 0.136609 0.096257 0.016810 0.028791 0.167802 -0.265283 -0.085439 0.128766 -0.387384 -0.024105 -0.423056 -0.519570 -0.257187 0.183251 0.359727 0.346607 0.375177 0.154301 0.187969 0.348357 0.000988 -0.131322 -0.184876
sent_25 -0.112366 -0.393965 -0.153855 0.042883 -0.403513 -0.210703 -0.255629 0.086687 -0.093783 -0.295920 -0.114632 -0.250402 -0.262127 -0.018650 -0.403215 -0.372666 0.501877 0.238681 0.119950 0.231552 -0.049041 -0.086921 -0.031180 0.377993 -0.238755 -0.022757 -0.138839 -0.191922 -0.055182 0.199007 0.018494 0.053594 0.248926 -0.256969 0.230374 -0.089113 -0.000028 0.251865 0.081988 -0.339604 -0.212468 0.007879 -0.126278 -0.343905 0.390342 -0.617475 0.178390 -0.323742 -0.157973 0.124937 0.129631 0.479889 -0.015157 0.108121 0.220906 -0.054125 -0.083091 -0.092632 -0.225615 0.024882 -0.012248 0.388950 -0.056030 -0.013845 -0.084442 0.025017 -0.172069 -0.015474 -0.045593 0.030912 -0.287934 -0.536435 0.237531 0.046935 0.252687 -0.082425 -0.055473 -0.120540 0.372577 -0.094490 0.119032 -0.314029 -0.042393 -0.048938 0.175248 -0.075300 0.104242 0.113545 -0.164735 -0.135748 0.123901 0.279673 0.216354 0.005570 -0.049393 -0.199750 0.271601 0.269539 -0.158701 0.050170
sent_26 -0.050876 0.170150 0.180126 -0.061094 -0.621676 0.130981 0.293435 0.134810 -0.075432 -0.243817 -0.361324 -0.313435 0.042008 0.181184 -0.241614 -0.191156 -0.008525 -0.102665 -0.092713 -0.201898 0.054669 -0.296694 -0.017671 0.392359 0.519565 -0.484970 -0.024328 -0.144359 0.056922 -0.031597 -0.025592 0.139540 0.399281 0.077727 0.240743 -0.705867 0.138202 -0.267202 -0.075264 0.301924 -0.448765 -0.009133 -0.146474 0.427566 -0.162323 -0.118691 0.326561 -0.103494 0.091054 -0.426939 0.015827 0.356544 0.278208 0.025335 -0.255451 -0.206925 0.031925 -0.241371 -0.233561 -0.317712 -0.065295 0.001367 0.110276 -0.232010 -0.360514 0.092169 -0.378810 -0.267370 0.208221 -0.039800 0.369478 0.227490 -0.420526 0.145257 -0.145574 0.097736 -0.352981 -0.137327 0.041563 -0.439914 0.030443 -0.047200 0.330759 0.236424 0.302431 0.235424 0.356775 -0.017047 0.162738 0.223056 -0.416708 0.463708 -0.386614 -0.074210 -0.225322 -0.273133 0.071338 -0.394848 -0.292936 -0.134103
sent_27 -0.058479 0.353925 0.026926 -0.029961 0.247162 -0.239737 -0.006714 0.105897 0.076961 0.361115 0.091929 -0.368814 0.158633 0.177556 0.121426 0.180120 -0.068154 -0.079667 -0.192881 0.158242 0.009328 0.098538 0.203274 -0.071346 0.244397 0.077479 0.125502 0.019415 -0.236367 0.093266 0.286401 0.046109 0.021150 -0.363336 0.088543 -0.332170 -0.079829 -0.068474 0.108941 0.021787 -0.290685 -0.302491 0.073440 0.243720 -0.031278 -0.046100 0.052527 -0.135292 0.163852 -0.120492 0.112707 -0.313580 0.026500 -0.014275 -0.315833 -0.230911 0.121948 0.095472 0.221905 -0.245024 0.051522 -0.000233 0.330740 0.144785 -0.253038 -0.157648 -0.062535 0.025170 0.366599 -0.055797 0.199990 0.315066 -0.308285 -0.015806 -0.491196 -0.382699 0.154429 0.025354 -0.220092 0.213947 0.214706 -0.094578 0.173989 0.050608 -0.283042 0.188888 -0.018237 0.102202 0.099108 -0.267041 -0.013337 -0.119377 -0.110319 -0.207725 0.026012 -0.106852 -0.313216 -0.158264 -0.056818 0.140951
sent_28 0.181414 -0.178301 -0.288290 0.180191 -0.286143 0.151434 -0.096214 0.117209 -0.024719 -0.229981 0.043964 -0.402637 -0.037036 0.383767 0.086205 0.111747 0.313197 0.171541 -0.267546 0.012403 -0.288029 0.073452 0.059104 -0.163314 -0.119011 0.405035 0.620532 -0.280466 -0.031061 0.015748 0.160416 -0.279097 -0.049498 0.552155 0.447648 0.117764 -0.075672 -0.409380 0.059156 -0.158841 -0.166104 -0.119965 0.385457 -0.015102 -0.372567 -0.066176 0.004590 -0.222094 0.199582 0.255406 0.138720 0.291570 0.428652 -0.520999 -0.121227 -0.247696 0.064873 0.004020 0.082470 -0.378469 0.056314 0.087168 -0.189911 0.574606 0.009736 0.248804 -0.091487 0.394486 -0.233921 0.273727 0.149528 -0.127029 -0.048085 -0.083549 -0.390185 -0.229981 0.424382 -0.781709 -0.225221 0.162197 0.198416 -0.046166 0.060712 -0.580390 0.199464 -0.178887 -0.291777 -0.515211 0.136184 0.172597 0.066647 0.084585 -0.227937 -0.348156 -0.037415 -0.396473 0.060463 0.087222 -0.015255 -0.012663
sent_29 0.072498 0.121130 -0.520435 0.067893 -0.334145 0.232230 0.214113 0.145595 0.244738 -0.014201 0.118466 -0.286660 -0.210582 0.139446 0.437650 -0.005159 -0.040093 0.284073 -0.411044 -0.121052 -0.127724 -0.027821 -0.158117 -0.124462 0.198577 -0.279466 0.195183 0.230186 0.078970 0.032205 -0.137073 0.124935 0.195764 0.205133 0.075414 0.333791 0.048909 0.158568 0.514074 0.088118 -0.231157 -0.083986 -0.103030 -0.135777 -0.265660 0.108808 -0.052592 -0.120013 0.302172 0.124174 -0.042526 -0.085353 0.248599 -0.290153 0.033188 -0.241063 -0.197555 0.126493 0.037338 -0.187531 0.263508 -0.081977 0.002510 0.402725 -0.354950 -0.091477 -0.183436 0.409248 -0.107798 -0.054635 0.051809 0.171879 -0.115844 -0.060556 -0.196247 -0.334446 0.136282 0.177700 0.110477 0.290339 -0.068014 0.192664 0.160196 -0.046628 0.145853 -0.067685 0.238480 -0.224627 0.190324 0.111203 -0.289729 0.256440 -0.118253 0.023723 -0.092574 0.090715 -0.188973 0.401712 -0.309656 -0.065319
sent_30 -0.180215 0.001995 -0.208971 0.225266 -0.668671 0.182001 0.205919 0.276959 0.388269 0.171530 0.160936 0.206814 -0.154041 0.120674 0.265668 0.082952 -0.300740 0.197019 0.347976 0.104472 0.095892 0.256288 0.081758 -0.057126 -0.149635 -0.335722 0.446212 0.100093 -0.227127 0.001770 0.134422 0.015596 -0.120235 0.194179 0.124007 -0.047652 -0.316805 -0.137589 0.216805 0.422198 0.091277 0.152139 0.195765 0.218220 0.126386 0.462426 -0.050583 0.094300 0.119372 0.150296 0.098005 0.630678 0.598384 -0.060090 -0.054285 -0.318531 -0.119601 0.020282 -0.237414 0.082691 0.443967 -0.155436 -0.482388 0.179849 0.162798 0.005696 -0.007658 0.045021 -0.041838 -0.248055 0.014772 0.197593 0.052018 -0.250577 0.068022 -0.065019 0.008321 -0.151851 0.134908 0.196946 -0.160688 -0.064584 0.349620 0.368092 0.140735 0.019019 -0.133434 0.015224 0.080031 -0.031648 0.066976 0.280817 0.182902 -0.218479 0.208805 0.293733 0.237042 0.128261 -0.003584 0.148442
sent_31 -0.249420 -0.040815 0.024898 -0.391837 -0.679311 0.474725 0.425636 -0.075055 -0.273284 -0.241600 -0.450929 -0.393646 0.287219 0.200418 0.124206 -0.192400 0.270720 -0.099957 0.374531 -0.051986 0.462013 -0.518788 -0.117579 0.183008 0.271559 -0.512722 0.058103 -0.214375 0.291051 0.069866 -0.347171 -0.093885 0.041842 0.566632 0.150932 -0.364948 0.174566 0.037581 -0.615959 -0.174558 -0.124950 0.408518 -0.048382 -0.055964 -0.217741 -0.477353 0.364676 -0.127426 -0.214106 -0.347178 -0.037734 0.487310 0.140045 -0.110182 -0.110825 -0.053618 0.010186 -0.179016 -0.394521 -0.332922 0.071496 -0.030834 0.391716 0.258624 -0.486990 -0.104009 -0.487474 -0.216751 0.461200 0.124348 0.515182 -0.162440 -0.188700 0.075120 0.113312 0.143601 0.031487 -0.491685 -0.259893 -0.324818 -0.149894 -0.273096 0.033297 -0.158372 0.144383 0.114392 0.281573 0.404981 -0.204445 0.452619 -0.228402 0.342350 0.020144 -0.705232 -0.358673 -0.704539 0.256932 0.260949 -0.161721 -0.328453
sent_32 0.037282 -0.204084 0.252150 0.126506 -0.100609 -0.047711 0.488896 0.161689 0.254935 0.180279 -0.188923 -0.276302 -0.027523 0.080814 0.019608 0.037895 0.221954 0.393730 -0.009365 -0.163287 -0.107156 -0.123279 0.059099 0.094648 0.044233 -0.104428 0.253591 0.223010 -0.094261 -0.107286 -0.065432 -0.090533 -0.067535 -0.081069 -0.043782 -0.021534 -0.177124 0.297638 -0.065509 -0.101220 -0.164943 -0.048669 0.216097 0.066929 -0.023100 -0.043882 -0.098748 0.184884 0.196476 0.027733 0.036408 0.097538 0.051978 -0.018256 -0.110333 -0.319771 0.050846 -0.298903 -0.086338 -0.285467 -0.016379 0.183173 -0.129682 -0.144065 -0.170507 0.179334 -0.059450 0.244934 0.145620 -0.013961 0.308954 0.067136 0.343180 -0.259345 -0.340680 -0.170930 0.030524 -0.254756 0.068063 0.085579 -0.015797 0.058293 -0.088572 -0.186051 -0.207469 -0.169156 0.111466 0.070303 -0.160060 0.507731 0.038295 0.237523 -0.167468 -0.384255 0.038218 -0.118610 0.124431 -0.000102 -0.056554 -0.221202
sent_33 -0.315834 0.131148 0.075491 -0.205051 -0.247318 0.027721 0.145573 0.015304 0.001729 -0.118384 -0.157488 -0.110170 0.033232 0.053034 0.001398 -0.056940 0.056499 0.227798 -0.120490 0.001049 0.055611 -0.115845 0.010668 0.170830 -0.085307 -0.336693 -0.009779 -0.114509 0.038764 -0.252542 -0.067456 0.085689 -0.108597 0.042600 0.049157 -0.319670 0.079361 -0.001962 -0.136116 -0.062058 -0.253341 -0.091144 0.020965 0.062154 0.109140 0.040898 0.049593 0.065647 -0.212812 -0.267925 -0.128292 0.105621 -0.080163 -0.040703 0.012255 -0.057644 0.060489 0.028963 -0.204982 -0.006250 -0.029255 0.080553 0.030180 -0.247046 -0.148500 -0.056532 -0.179821 -0.104572 0.140150 -0.074648 0.204960 0.198320 0.005503 -0.146821 0.077063 0.197012 -0.458594 -0.254975 0.005693 -0.041717 -0.071216 0.144346 0.216984 0.275507 0.036075 0.190582 0.100718 -0.117899 0.139841 0.215173 -0.228670 0.231488 -0.253515 -0.210356 -0.181584 -0.215664 0.057041 -0.083859 -0.042441 -0.012244
sent_34 -0.011724 -0.434451 0.237726 0.220504 -0.047165 -0.077701 0.180121 0.103679 0.714770 0.656962 -0.230201 0.063525 -0.665845 -0.021439 0.135798 -0.046939 0.324686 -0.327640 -0.354487 0.027838 0.150153 -0.070255 0.095379 -0.287600 -0.243436 -0.511508 0.401186 0.002033 0.154849 -0.275837 0.093703 -0.508038 0.125758 -0.029811 -0.122552 -0.009137 0.358394 0.864424 -0.561926 -0.086401 -0.420697 -0.168882 0.017957 0.342427 -0.035819 0.326385 0.049656 0.360752 -0.188789 -0.119020 -0.005248 0.396071 0.511506 -0.063056 0.369153 0.055210 0.211200 -0.177658 0.257762 -0.586430 0.179689 -0.080091 -0.206109 -0.288194 0.006928 -0.270851 0.200340 0.037021 0.497210 0.144266 0.010299 0.132481 0.495909 0.133272 -0.589031 0.291530 -0.332333 -0.027292 -0.078404 -0.104429 0.202173 0.217361 -0.423299 0.068478 -0.131111 0.205519 -0.208140 0.721659 -0.204741 0.106253 0.213447 0.313619 -0.157633 -0.161636 -0.015415 -0.230349 -0.136889 -0.026363 -0.220635 0.075183
sent_35 -0.245239 -0.007352 0.042295 -0.129152 -0.220889 -0.274406 0.060937 0.011056 -0.099102 -0.026892 -0.142401 -0.347545 -0.117662 0.268418 -0.028276 -0.202694 0.076233 -0.063660 -0.010973 -0.014318 0.027898 0.057485 0.290318 0.134577 0.024845 0.004185 0.166791 -0.117540 -0.091948 -0.155824 0.015512 0.155900 -0.188277 -0.037382 0.089212 -0.076619 0.228996 -0.127696 -0.089782 -0.233393 -0.237740 0.099964 0.023889 0.340755 -0.063741 -0.220022 0.137827 0.234944 -0.130942 -0.183660 0.131127 -0.019072 -0.047667 0.024202 -0.106589 -0.091568 0.165266 -0.088798 -0.024445 -0.224621 -0.075812 -0.043276 0.131549 -0.267744 -0.122545 0.133831 -0.102032 -0.117028 0.339833 0.116668 0.117315 0.198675 -0.084016 0.084435 0.156738 0.082045 -0.095910 -0.104110 -0.126744 -0.351552 -0.028232 -0.010049 0.028622 0.265125 0.034025 0.154484 0.226600 0.007909 0.111019 0.041073 -0.178279 0.189925 -0.010745 -0.421946 -0.146274 -0.175337 -0.042629 -0.277862 0.057843 -0.048926
sent_36 -0.570190 0.238241 0.093280 -0.136502 0.098113 0.003385 0.412002 -0.011468 -0.039280 0.336699 -0.135097 -0.401133 0.220431 0.300376 0.253148 -0.346338 0.276544 -0.018565 0.037657 0.009867 -0.253055 0.038789 0.317747 -0.144078 -0.131769 0.022715 -0.351632 -0.097566 0.038034 0.041161 0.173093 -0.119518 -0.166364 0.048074 0.210047 0.183877 -0.054112 -0.156732 0.189529 0.191352 -0.331908 0.062836 0.190529 0.260816 -0.235589 -0.110940 0.238296 0.161470 -0.172659 -0.380345 -0.013343 -0.349304 -0.106865 0.194976 -0.075869 0.030498 0.185326 -0.036610 0.170966 -0.197354 -0.116772 0.202499 -0.219236 -0.246834 0.097264 -0.081506 -0.167274 -0.167478 0.433882 0.173763 0.104957 0.287948 -0.362968 0.017590 0.108169 -0.406077 0.032339 -0.443142 -0.332834 0.017259 -0.307121 -0.045036 0.188960 0.215834 -0.396787 -0.103676 0.254734 0.099896 0.201572 -0.206099 -0.168441 0.064445 -0.015099 -0.500200 0.205860 -0.222626 -0.011098 -0.240702 0.240621 -0.092747
sent_37 -0.324069 0.125414 0.067632 0.013729 -0.124439 -0.298155 0.102066 0.041167 -0.212306 0.123778 -0.187921 -0.301762 0.016049 0.175786 0.084069 -0.116691 -0.004049 -0.188133 -0.008881 -0.035699 0.038657 -0.201039 0.089647 0.068066 0.018032 -0.064840 0.011784 -0.131655 -0.181102 -0.071384 0.054243 -0.076837 -0.076104 -0.062969 0.226809 -0.098765 0.058319 -0.107764 -0.147159 0.058238 -0.378796 -0.003484 -0.048347 0.050530 0.005515 -0.325579 0.356050 0.259565 -0.167598 -0.015536 0.113436 0.062891 0.079729 0.023392 -0.136506 -0.091865 0.006604 0.007311 -0.063299 -0.266113 -0.004499 0.055604 0.023985 -0.200135 0.143383 -0.042911 -0.068635 0.010427 0.200570 -0.133932 0.090469 0.182311 -0.146256 -0.082806 0.066177 0.090429 -0.215698 -0.098567 0.233631 -0.130780 -0.204215 -0.085729 -0.045701 0.234910 -0.091695 0.105446 0.022555 0.075520 -0.050427 0.078094 -0.219118 0.118737 0.085380 -0.299990 -0.273590 -0.126993 0.147991 -0.156462 0.067095 -0.039269
sent_38 0.440645 0.173240 -0.048085 0.075020 0.135146 0.414805 -0.376526 0.334766 -0.011025 -0.221828 -0.208452 -0.001005 0.033333 -0.021243 -0.346518 0.010832 -0.034365 0.394826 0.319450 -0.097077 0.474725 0.055512 0.148638 0.301819 -0.052823 -0.331933 -0.205003 -0.149454 -0.259092 -0.302357 -0.054949 0.415363 0.362172 -0.058261 -0.117632 -0.491887 -0.084215 0.004328 -0.054895 -0.208174 0.339128 -0.020464 0.158431 0.326086 0.023073 0.282491 -0.144261 0.249091 -0.549633 -0.098203 -0.089000 0.358272 0.059245 0.131037 -0.081387 0.031597 0.348596 -0.219487 -0.117319 0.238564 0.092231 0.217506 0.147502 0.191860 -0.486394 -0.486630 -0.216715 -0.213679 0.265840 0.048275 -0.225034 -0.100740 -0.191465 0.063960 -0.048582 0.034755 -0.324280 0.029852 -0.047697 0.275970 0.019489 -0.058119 0.096031 -0.001816 -0.088967 0.021534 0.021728 -0.058395 0.173166 -0.187666 -0.281712 -0.003992 -0.277002 0.168322 0.197031 0.178471 0.039153 0.452506 -0.386958 0.117455
sent_39 -0.002986 -0.004683 0.027242 0.006714 -0.085085 -0.034352 -0.045955 -0.012427 0.001283 0.096624 -0.101288 -0.084450 0.101781 0.057922 0.001943 -0.140474 0.068632 0.139456 0.146695 -0.173505 0.060533 -0.112555 0.105166 0.139863 -0.132929 -0.197831 0.014758 0.026706 -0.172113 -0.088815 -0.097746 0.025436 -0.040655 0.066823 0.183885 -0.121154 0.192061 -0.107910 -0.224342 0.028317 -0.216934 0.081097 -0.060017 0.115643 0.170037 -0.182501 0.026518 0.010057 -0.144833 -0.067249 -0.033376 0.013642 0.070663 -0.106783 0.040378 0.027532 -0.014281 -0.157050 -0.195967 -0.148501 0.009274 0.174464 0.100643 -0.145804 -0.021520 -0.183283 0.009498 -0.164148 -0.037287 -0.149127 0.060164 -0.097061 -0.184522 -0.101902 0.047222 0.064416 -0.285271 -0.116992 -0.011005 -0.168165 -0.112587 0.002586 0.037302 0.307047 -0.028164 0.209925 0.107389 -0.080087 0.087205 0.161626 -0.312228 0.161384 0.000525 -0.229160 -0.300132 -0.217658 0.190713 -0.097020 0.026007 0.033532
sent_40 0.064173 0.142210 0.153911 -0.020247 -0.081445 0.067905 -0.041035 0.069365 0.080921 0.231197 -0.181744 -0.315715 -0.045811 0.293392 0.117444 -0.077197 0.031930 -0.084376 -0.433451 -0.051706 0.176910 0.341608 0.048509 -0.300038 0.529095 0.325850 -0.023958 0.034481 -0.278700 -0.152052 0.032774 -0.045014 -0.046732 0.187327 0.222126 -0.111655 -0.007392 -0.191481 -0.221999 -0.237015 0.040996 -0.134657 -0.007058 -0.021701 -0.164922 -0.440987 0.265254 -0.040453 0.210099 0.310661 0.216973 -0.028607 0.244108 -0.054654 -0.305061 0.226661 -0.010786 -0.048617 -0.067476 -0.026606 -0.387700 -0.151558 0.049779 0.136311 -0.029205 -0.242424 0.008907 -0.477224 0.425824 0.102437 0.275489 0.068913 -0.335888 0.405029 -0.172918 0.077048 -0.150965 -0.358936 -0.125683 -0.035887 -0.116072 -0.151221 0.146561 -0.049623 -0.385501 -0.123277 -0.353288 0.497046 0.213402 -0.047382 -0.100250 0.219554 0.056401 -0.013674 -0.032769 -0.267382 0.066772 -0.174021 0.141316 -0.013693
sent_41 -0.350597 -0.308451 0.099255 0.245298 0.262964 0.311237 0.589704 -0.044566 0.191887 -0.104179 0.102315 0.172810 0.555566 0.320009 0.621244 -0.112551 0.062708 -0.173077 -0.026035 0.436622 0.130060 0.006061 0.452116 0.167848 0.269879 0.036010 0.143003 0.371544 -0.041968 -0.252266 0.140693 -0.059000 -0.292624 0.150518 -0.002931 0.154104 -0.009756 0.364209 0.162297 -0.025610 -0.118439 0.079023 0.397560 -0.264019 -0.326574 -0.389750 -0.207413 -0.155631 -0.037311 0.023531 0.394139 0.067843 0.318376 -0.002479 -0.036269 -0.306478 0.297755 0.407433 0.348629 -0.304545 -0.270361 0.062150 0.166328 0.505203 -0.295929 -0.005750 -0.191368 -0.108008 0.048091 -0.039805 0.357107 0.165149 0.065004 -0.234930 -0.255830 -0.225817 -0.075809 0.218018 -0.363463 0.146942 0.066244 -0.141779 0.104230 -0.005619 -0.188458 -0.160322 0.070594 -0.330642 0.138258 -0.062130 0.013512 -0.089620 -0.097846 -0.213916 0.092444 -0.073616 0.076137 -0.051510 0.072555 -0.369684
sent_42 -0.075439 0.197500 0.059432 0.125584 -0.137764 -0.111948 0.004605 0.089588 -0.202431 0.174269 -0.042236 -0.128296 0.312965 0.114604 0.182198 0.037108 0.152847 -0.120186 0.094674 -0.121464 0.052311 -0.175353 0.259035 0.150605 -0.089273 -0.277285 0.065892 0.091058 -0.131307 -0.115501 0.163354 -0.236027 -0.139717 0.030732 0.023238 0.047550 0.247295 -0.087051 -0.072131 -0.000592 -0.230745 0.013540 0.113901 -0.040445 -0.149939 -0.100870 0.010253 0.012250 0.002730 -0.092773 0.030691 0.163947 0.070241 -0.145133 -0.145180 -0.159561 0.030109 -0.088711 -0.237338 -0.239039 -0.173500 -0.025943 -0.005524 -0.085282 0.038848 0.031081 -0.062718 -0.079158 0.146139 -0.161150 0.065041 0.060837 -0.150788 -0.182693 -0.028186 -0.128908 -0.043964 -0.166194 -0.052607 -0.096225 0.059360 -0.248868 0.076804 0.169561 -0.048524 0.077759 -0.152968 -0.026820 0.082148 0.157900 -0.213631 0.282138 -0.118617 -0.132621 -0.061104 -0.307952 -0.016200 -0.078451 0.008401 0.176977
sent_43 -0.114664 0.043078 -0.043932 -0.101224 0.034555 -0.050985 0.033345 -0.041951 -0.080847 0.140654 0.027625 -0.112210 0.196762 -0.054988 0.322827 -0.176486 0.103429 0.035138 0.054615 0.186348 0.144209 0.136686 0.048761 0.111106 -0.173010 -0.116163 0.018594 0.046194 -0.269266 -0.066941 0.125536 -0.020730 0.084116 0.155034 -0.353267 0.108998 0.003842 -0.176233 0.147059 -0.511766 -0.014855 0.037808 0.159679 -0.225015 -0.152469 0.071276 -0.323176 0.053271 0.210287 0.016544 0.187891 -0.177881 0.002342 0.045876 0.051963 -0.113110 -0.070537 -0.052733 -0.106789 -0.146017 -0.033455 -0.021749 0.012310 -0.015288 0.176552 0.158091 -0.126232 0.165339 -0.038573 0.231684 0.163385 0.273437 0.025226 -0.251315 -0.014463 -0.200335 0.097868 0.073355 0.131825 -0.103115 -0.169750 -0.094095 0.125581 -0.084790 0.042057 -0.265801 -0.166027 -0.105670 0.061373 0.032294 -0.169008 -0.030848 -0.456775 -0.303160 -0.102174 -0.145042 0.037394 -0.013647 -0.287474 -0.162571
sent_44 -0.062941 0.076756 -0.087171 -0.114539 -0.137119 -0.084442 -0.113378 0.119537 0.037912 -0.012827 -0.048834 -0.137294 0.050013 0.132166 0.069746 -0.119087 0.022724 0.005680 -0.028111 -0.152506 0.102046 -0.156337 0.259331 0.002453 -0.018354 -0.115356 0.121975 -0.012478 -0.043202 -0.171104 -0.077371 0.001619 -0.107646 0.030981 0.010236 -0.239790 0.207402 -0.111183 -0.147567 -0.083484 -0.267220 0.023798 -0.013734 0.201966 -0.020855 -0.171644 0.182147 0.064749 -0.189584 -0.108126 -0.008213 0.111041 0.040010 0.009354 -0.020805 -0.081021 0.136961 -0.100373 -0.194348 -0.220409 -0.099680 0.063580 0.142707 -0.202518 -0.024900 0.102435 0.069301 -0.188754 -0.002840 -0.118528 0.038680 0.047028 -0.183157 0.009012 0.099060 0.162224 -0.243458 -0.205020 0.000589 -0.211312 -0.037488 -0.065751 0.011485 0.165768 0.045044 0.117234 0.095088 -0.001285 0.107320 0.110317 -0.287434 0.320378 -0.106471 -0.197160 -0.342411 -0.389336 0.074894 -0.175137 0.022930 0.056965
sent_45 -0.106849 0.150725 -0.058087 0.182344 -0.073059 0.078216 -0.207250 -0.103261 0.215465 -0.208255 0.205006 -0.286075 -0.003893 -0.051366 0.285232 -0.330093 0.130389 -0.323247 -0.053824 0.181974 -0.051508 -0.110089 0.068817 0.025530 0.399984 -0.096940 -0.244748 -0.160137 -0.255540 0.099021 -0.001339 0.019181 -0.031928 0.057799 -0.162200 0.103375 -0.078276 0.132648 0.091015 0.085385 -0.156400 -0.105494 0.234127 0.174547 0.248240 0.049972 0.048065 -0.032569 -0.039037 -0.031705 -0.163893 -0.138188 -0.194381 0.038829 -0.183202 -0.327384 0.043953 -0.056583 -0.087138 -0.116023 -0.335646 0.044252 -0.112656 0.230472 -0.087240 -0.174582 0.146736 -0.007462 -0.026285 -0.166452 -0.079828 0.457963 0.054912 -0.344943 -0.027018 -0.118648 0.071795 -0.070338 -0.135594 0.478159 -0.114438 -0.007536 0.241927 0.332079 0.069355 -0.108568 0.115444 -0.051325 0.244661 0.116312 -0.151803 0.002741 0.000594 -0.167869 -0.091576 0.106400 -0.129267 0.020090 0.086953 0.156883
sent_46 -0.014171 0.044492 -0.350616 0.153144 -0.230861 -0.135571 0.105958 -0.118850 0.241288 -0.193888 0.014070 -0.103309 0.008415 -0.102804 0.291494 -0.242264 -0.056750 0.060590 -0.168829 0.073031 -0.036359 0.061337 -0.329054 0.065799 -0.007157 -0.083391 0.032436 0.119170 -0.059971 0.347737 0.054460 0.137809 0.146932 0.311559 0.087247 0.034981 0.005953 -0.024151 0.031321 -0.163177 -0.088200 0.070141 0.184167 -0.182298 -0.058843 0.190338 -0.162420 0.015610 -0.019126 0.006821 0.056841 -0.014765 -0.203984 0.064600 -0.178382 0.007073 0.027367 0.045311 -0.052641 -0.125268 -0.395014 -0.018688 0.331210 0.001282 -0.119359 0.229802 -0.203542 0.098872 -0.094140 0.164470 -0.245792 -0.127453 0.070874 0.203012 -0.036439 -0.209837 0.039312 0.125495 0.055666 0.032865 0.288372 -0.213132 0.200705 0.057846 -0.040848 -0.191207 -0.087874 -0.148859 0.056383 0.104395 0.016161 0.258257 -0.222724 -0.212245 -0.060757 -0.071193 -0.071822 -0.090823 -0.132634 -0.179533
sent_47 -0.270895 -0.314584 -0.063299 -0.046677 0.223783 0.240412 -0.112724 -0.031379 -0.003557 -0.360151 0.044828 0.042133 -0.042184 0.025252 0.075224 -0.123575 0.225927 0.223002 -0.033653 0.046962 0.129229 0.184542 -0.053377 -0.565663 -0.166008 0.050098 -0.286346 0.134184 -0.167313 -0.186451 -0.230355 -0.238353 0.007714 0.097736 0.076365 -0.271736 -0.199962 0.006951 0.065335 0.090811 -0.166959 0.135302 0.521122 0.134546 -0.029614 0.385352 -0.176801 -0.196217 -0.067104 -0.254792 0.112192 -0.407498 -0.297634 0.060215 -0.077188 0.179201 -0.237249 -0.183065 -0.046558 -0.126839 -0.039732 0.309466 0.450395 0.340131 -0.213435 -0.157943 -0.181592 0.112376 0.132834 0.157454 -0.028397 0.104728 0.084100 -0.057013 -0.208782 -0.180648 0.374273 0.150535 -0.042710 -0.055798 0.046875 -0.090441 0.325456 -0.030326 -0.016102 -0.409999 -0.160829 0.083945 0.230138 0.016940 -0.258143 0.055027 -0.142346 0.108426 0.055547 -0.042472 -0.227747 0.016150 -0.253335 0.074842
sent_48 -0.063101 0.147187 0.049204 0.250927 -0.017655 0.096003 0.222106 -0.125751 0.105583 0.172312 0.191896 0.133150 -0.031580 0.109087 0.089506 -0.052135 -0.135904 0.032161 0.130491 -0.084595 0.002284 -0.176561 0.043360 -0.213434 -0.011122 -0.239082 -0.194679 0.052132 0.162403 -0.267728 -0.059778 0.087247 -0.105426 0.141750 0.019474 0.093161 0.033816 0.348539 -0.039933 0.310675 -0.194576 0.202190 0.154108 0.092402 0.264999 -0.021579 0.108137 -0.138940 -0.012705 -0.158732 0.091158 -0.282361 0.354216 0.016810 0.037239 0.017314 0.275118 -0.095208 0.091960 -0.354356 -0.065118 0.024398 -0.139324 0.423242 -0.271910 0.062059 0.003639 0.005899 0.006405 -0.252562 0.184568 0.131571 -0.057046 -0.120220 -0.110132 -0.085630 -0.236064 -0.098752 -0.159000 -0.276149 0.352799 -0.167541 0.038128 -0.179537 0.392432 0.066339 -0.114410 0.137354 0.475313 -0.057791 0.088722 0.262720 0.158601 -0.211918 -0.043206 -0.058800 -0.191865 -0.360787 0.010669 0.042623
sent_49 -0.076196 -0.227843 0.043897 0.024258 -0.215812 0.048686 0.010061 -0.292276 0.201805 0.031538 0.395609 -0.098302 0.281438 0.095459 0.219392 -0.105892 0.216140 0.346799 0.010273 -0.153638 0.081865 0.085492 0.334309 -0.053844 -0.021940 0.232592 -0.026609 0.000024 0.220561 0.143238 -0.087451 -0.399114 0.066624 -0.014797 -0.069691 -0.039460 0.007255 0.368290 -0.040429 -0.288726 0.020089 -0.065549 0.149799 0.078180 -0.083211 0.083218 0.065455 -0.097795 -0.164588 -0.043623 0.157557 -0.432403 -0.050306 0.077540 0.148071 0.010932 -0.052905 -0.035314 0.001772 0.062041 -0.019139 0.019921 -0.151933 0.308492 -0.330348 0.153036 -0.080739 -0.191829 0.061351 -0.152074 -0.034294 0.008505 -0.042301 0.360504 -0.190319 0.032971 0.050327 0.343996 -0.226878 -0.145127 0.189854 -0.342383 0.071001 -0.021195 0.196122 0.009676 -0.168190 0.253072 0.023398 0.078457 0.115276 -0.030512 -0.009187 0.114402 -0.020118 0.243949 -0.114386 0.000248 -0.150848 -0.326992
sent_50 -0.098328 0.061106 0.032531 -0.001732 -0.124035 -0.082025 -0.034829 0.064417 0.018920 0.083748 -0.054778 -0.137760 0.041442 0.028648 0.091812 -0.046388 -0.069273 -0.110477 0.046450 -0.122454 0.041372 -0.161604 0.145392 0.061388 0.036897 -0.125521 0.044315 -0.088823 -0.021749 -0.045134 0.047259 -0.029450 -0.069119 0.026441 0.090439 -0.156466 0.152994 -0.036282 -0.047243 0.010978 -0.245025 0.015249 -0.005191 0.045463 -0.095411 -0.185374 0.127711 0.061834 -0.136539 0.001587 -0.023446 0.097776 0.079564 0.085623 -0.109573 -0.154191 0.097145 -0.089674 0.020312 -0.178440 -0.103737 -0.082843 -0.016072 -0.128207 0.063185 0.028343 0.052589 -0.090288 0.101770 0.052995 0.043521 0.007713 -0.148923 0.049354 -0.041854 0.081732 -0.163081 -0.182506 0.142647 -0.158891 -0.048277 -0.065314 0.075231 0.068044 0.036905 0.039973 0.036353 0.023140 0.064464 0.053610 -0.173051 0.168275 -0.073699 -0.094603 -0.262353 -0.152408 0.047031 -0.168204 0.026745 -0.066661
sent_51 -0.059307 0.130130 0.146461 0.115042 -0.219295 -0.071726 0.099361 0.111256 -0.019453 0.174097 -0.076350 0.043725 -0.081990 0.167419 -0.032565 -0.141886 0.071144 -0.030742 -0.149243 -0.169238 0.266429 0.008009 0.074624 0.143100 0.022563 -0.037292 -0.123750 -0.040482 -0.166725 -0.069413 -0.018844 0.086555 0.066398 0.022985 0.016838 -0.067373 0.173570 0.068022 -0.072963 -0.215498 -0.130392 0.284545 -0.049873 0.186190 -0.170360 -0.214628 0.164210 0.138151 -0.213386 -0.151578 0.096134 0.257883 0.238431 0.178593 -0.073396 -0.008661 0.159513 -0.138742 0.074275 -0.151965 -0.174485 -0.159473 0.054648 -0.052074 -0.006159 0.034578 -0.148146 -0.200630 0.255817 0.174312 0.319721 0.201127 0.093886 0.107478 0.302139 0.155833 0.047505 0.063978 -0.045297 0.054946 -0.100925 0.098137 0.098938 0.350723 0.046578 -0.004889 -0.101354 0.020499 0.220128 0.083555 -0.004998 0.109442 0.193368 -0.100814 0.094510 -0.204841 -0.015543 -0.140400 0.001939 -0.117141
sent_52 -0.027963 0.011005 0.143591 0.096052 -0.098705 0.036163 -0.002679 -0.088740 0.066523 0.013096 -0.045957 0.017234 -0.000791 0.052731 -0.114267 -0.089248 -0.044031 0.052164 -0.041176 -0.179224 0.071845 -0.151889 0.093312 -0.018973 0.012669 -0.073602 0.121359 0.018116 0.029718 -0.033882 -0.035751 0.032930 0.028067 0.082880 0.056707 -0.137207 0.006410 0.008333 -0.086267 -0.088299 -0.088855 -0.044587 -0.008799 0.061910 0.061588 -0.121107 0.136505 0.105267 0.018239 -0.122805 -0.068110 0.044008 0.076984 0.047699 0.004913 0.088924 0.217597 -0.098829 -0.144235 -0.083098 -0.007532 0.155423 0.054854 -0.060375 -0.075714 -0.067038 -0.088758 -0.087608 0.091974 -0.000188 0.034332 0.023859 -0.105571 0.018169 0.204355 0.106042 -0.156514 -0.068993 -0.014291 -0.099981 -0.083916 -0.029279 0.217613 0.093922 -0.105722 0.091707 -0.006382 0.044927 0.014950 0.188500 -0.229019 0.190758 -0.036391 -0.111384 -0.093212 -0.127514 0.022024 -0.034346 0.018427 0.019171
sent_53 -0.275656 0.010193 -0.070968 0.141367 -0.028321 0.115132 0.292167 0.133917 0.269821 -0.191908 0.087079 -0.430266 0.036486 0.153907 0.065347 0.061219 0.307585 -0.067630 -0.033095 0.037557 -0.002086 -0.005838 0.376114 0.143286 -0.182608 -0.193834 0.120180 -0.307809 -0.294980 -0.107929 -0.065958 -0.182135 -0.430693 -0.270377 0.125895 0.092716 0.112310 -0.043418 0.119793 0.318666 -0.555990 -0.161226 0.178631 0.157035 0.088356 0.298881 -0.163157 0.246983 -0.038428 0.013087 -0.044629 -0.172864 -0.144315 0.135057 -0.110802 -0.029369 0.075741 -0.006981 -0.074627 0.113758 -0.275449 0.018755 -0.066808 -0.294069 -0.146189 -0.131453 0.136264 -0.026332 -0.185288 -0.029979 0.203683 0.162169 -0.251174 -0.429086 -0.025120 -0.254610 -0.313603 0.021124 -0.154408 0.408246 -0.217367 -0.153144 0.275848 -0.191623 -0.042939 0.069220 0.340597 -0.096925 0.245708 0.041930 -0.171116 -0.212969 0.029373 0.133131 0.315047 -0.074979 0.216439 -0.083097 0.223099 0.040663
sent_54 -0.601484 0.247145 -0.167470 0.405351 0.084347 -0.378107 0.348307 -0.037637 -0.280970 -0.123893 0.000211 0.263643 0.292132 -0.163382 0.465337 0.329318 -0.252372 -0.167355 -0.332526 0.097235 0.564483 0.460406 -0.561497 -0.496626 0.106294 0.287603 -0.370459 0.001655 0.331188 0.339971 -0.047414 -0.004333 -0.236872 0.313494 0.175453 -0.064946 -0.373369 -0.158765 0.154676 0.056001 -0.082628 0.618539 -0.474913 0.609657 0.389155 0.349626 -0.262778 0.109086 0.012988 -0.233414 0.218605 -0.450721 0.145455 -0.296248 -0.327983 0.302296 0.218985 0.230892 0.000724 0.351445 -0.264489 0.128851 0.080606 0.118870 0.025999 -0.237338 0.043114 0.226980 0.146100 -0.639470 0.246039 -0.114098 -0.232382 -0.258495 -0.105541 0.150703 0.343132 -0.191105 -0.426703 0.179524 0.316651 -0.033560 0.502210 -0.288407 -0.499325 0.320664 -0.012266 0.479023 0.263904 -0.392822 -0.089217 0.063084 -0.573320 -0.540259 0.441463 0.203299 -0.063521 -0.362576 0.220922 0.428828
sent_55 -0.120273 0.046898 0.129774 0.117085 -0.249659 0.095919 -0.025070 0.050923 0.064366 -0.027927 0.048764 0.022554 -0.271963 0.117270 0.059540 -0.180828 0.121742 -0.028002 -0.167920 0.020254 0.219312 0.213672 0.296441 0.063335 -0.025713 0.015737 0.031532 0.204562 -0.289920 -0.275999 -0.103468 -0.176440 0.007914 -0.040877 0.020581 -0.041848 -0.049986 0.031519 -0.120852 -0.066681 -0.310375 0.076323 0.072438 0.182732 -0.139231 -0.188043 -0.145503 0.171236 -0.063682 0.054199 0.097730 -0.011253 0.063650 -0.102813 0.067345 -0.211001 0.108382 0.005669 -0.227918 -0.110856 0.084272 -0.113235 -0.073065 0.053239 -0.323326 0.053805 -0.164538 -0.205771 -0.032890 0.058030 0.307135 0.186648 -0.186549 -0.127564 0.181362 -0.019162 0.054564 0.026585 -0.193298 0.062510 0.122943 0.213241 0.128125 0.208854 0.098859 0.028108 0.246044 -0.036476 0.237842 0.072321 -0.026495 0.194708 -0.048469 0.032154 0.079804 -0.056808 0.077432 -0.122529 0.165650 -0.139656
sent_56 -0.309050 0.142462 -0.183315 0.303889 0.037697 -0.175095 -0.050610 0.290901 -0.146619 -0.102816 0.366775 -0.209158 0.394524 0.009767 -0.023861 0.035641 0.256789 -0.245340 -0.036428 0.033633 -0.023382 0.000309 -0.308227 0.132442 -0.221162 0.363153 -0.016691 -0.184688 0.162671 0.011309 0.505514 0.055069 -0.236441 0.106565 -0.179523 -0.140237 0.389770 0.106560 -0.245235 0.415287 -0.168267 0.291073 -0.251650 0.240354 -0.191670 0.101992 0.308229 0.264929 -0.214029 -0.038559 -0.045101 0.010217 0.057028 0.136940 0.236761 0.007624 0.282656 0.255004 0.097493 0.093461 -0.257952 -0.211882 -0.289740 0.077253 -0.423134 -0.023038 0.370077 0.020669 0.187582 0.258136 0.064200 -0.187041 0.071587 -0.156250 0.139278 0.265429 0.100314 0.139655 -0.202906 0.291561 -0.019299 -0.292113 0.063910 0.268257 0.040370 0.083500 -0.174015 0.146436 0.240823 0.003551 0.328798 0.123098 -0.018229 -0.425064 0.140186 0.027792 -0.073607 -0.176279 0.052622 0.285324
sent_57 -0.008349 0.096644 -0.140011 0.129539 -0.112830 -0.093252 0.083488 -0.010138 -0.373169 -0.175377 0.021810 0.059355 0.016898 -0.029776 0.152658 0.132747 0.065318 0.026231 -0.138323 -0.062484 -0.078777 -0.034421 0.262157 0.016102 0.004699 0.028854 -0.136076 0.023386 0.062570 -0.217843 0.089363 0.010569 -0.016927 0.012226 -0.116921 -0.082940 0.051035 -0.085238 -0.104782 0.006424 -0.154887 0.205329 -0.049172 0.260018 0.210871 -0.083496 0.001854 0.043439 -0.211317 -0.181393 -0.144634 0.055869 -0.167983 0.018671 -0.231831 0.031390 0.038616 0.050181 0.037124 0.075289 -0.608605 0.103579 0.054036 0.145494 -0.069343 0.207202 0.033079 -0.042698 -0.008268 -0.007145 0.155281 0.062950 -0.230933 -0.131651 0.172252 0.106578 0.003089 0.136522 -0.012139 -0.158506 -0.110776 -0.389757 0.077445 0.090376 0.049379 -0.076851 0.101413 -0.100736 0.149237 0.424749 -0.247691 0.209297 -0.131327 -0.056589 -0.191786 0.084388 -0.138829 -0.118782 -0.002466 -0.070756
sent_58 0.161936 -0.110664 0.075743 0.222966 -0.146856 0.134342 -0.192721 0.365071 -0.267165 0.023361 -0.022974 0.098522 -0.028885 0.236909 -0.029502 -0.263032 0.015773 -0.066919 -0.067034 0.041539 0.216099 -0.223126 0.025673 0.214616 0.078931 -0.243194 -0.049817 -0.006855 -0.174843 0.094227 -0.111239 0.105542 0.319042 0.047160 0.145832 -0.142187 0.007819 -0.108520 -0.013088 -0.269463 -0.011014 0.163008 -0.044289 -0.025063 -0.290856 -0.090755 0.011894 0.124036 0.008819 0.031137 0.104058 -0.048420 0.303917 -0.067625 0.102562 -0.139282 -0.109974 0.087314 0.037221 -0.185577 -0.021354 -0.040701 -0.008000 -0.181777 -0.031688 -0.000188 -0.230194 0.074576 -0.106827 -0.051110 -0.090532 0.047725 -0.245300 0.041391 -0.044248 0.022382 0.077856 -0.236697 0.128161 -0.287093 0.058974 -0.498689 -0.027398 0.059435 -0.040746 0.056867 0.057103 0.238274 -0.245311 0.201187 -0.276605 0.117455 -0.076176 -0.158592 -0.055671 -0.304040 -0.009501 -0.034421 0.090267 0.155818
sent_59 0.035698 -0.052672 0.153922 -0.273466 0.480909 -0.209340 -0.198655 0.074401 0.010687 0.146002 -0.789849 0.100306 -0.121884 -0.057883 -0.145660 0.242233 0.113982 0.080442 -0.089120 -0.087885 -0.263915 0.749115 0.247966 0.010625 0.023436 0.158193 -0.163986 0.484345 -0.004384 0.170002 0.070528 0.123607 -0.008959 -0.071499 0.092954 -0.335754 0.277931 -0.650398 0.107657 0.413784 0.119432 0.298544 0.105258 0.005855 -0.326878 0.395979 -0.263033 -0.348514 0.246716 0.230002 0.019942 0.017838 -0.046545 -0.010777 -0.242076 0.066334 0.132648 -0.038942 -0.010692 0.076805 -0.019405 -0.228148 -0.007516 -0.314908 -0.103434 0.078473 0.125992 0.092673 -0.068999 0.173686 0.053181 -0.052553 -0.347347 0.156585 0.098067 -0.213175 0.152286 0.198983 -0.389613 -0.050574 0.280312 0.177597 0.440270 -0.202613 -0.204689 0.009068 0.094465 -0.257486 -0.041293 -0.629565 -0.282265 0.084438 -0.347356 -0.456975 0.035366 0.171441 0.167063 0.236735 0.167167 0.016450
sent_60 -0.050172 0.100364 -0.104210 0.016597 0.533086 -0.062543 0.176855 -0.206285 0.183301 0.571813 -0.092377 -0.178876 0.111851 0.223237 0.046017 0.143306 0.228896 0.028850 0.009965 -0.574528 -0.295374 0.019439 0.154947 0.233024 0.244009 -0.277768 -0.077180 0.239634 0.108631 -0.075014 -0.002171 0.443985 -0.195350 0.122025 0.366174 0.099709 0.009389 -0.397066 0.124426 0.234365 -0.500292 0.053610 0.084910 0.222139 -0.142268 0.059474 -0.003782 0.322149 0.375285 0.105809 0.079981 0.316361 0.338370 -0.276509 -0.444947 -0.148298 0.060273 -0.356971 -0.013538 -0.341454 0.189932 -0.016831 -0.365781 -0.169393 -0.339135 -0.357847 0.001291 -0.417428 0.067916 -0.153545 0.126588 -0.136581 -0.555446 -0.333365 -0.048108 -0.431762 -0.099123 -0.593357 -0.841367 -0.001719 0.043755 0.199263 0.243832 0.275215 -0.064604 0.222152 0.320308 -0.235575 -0.104973 -0.214757 -0.468179 0.181907 0.177024 -0.370049 -0.011483 -0.108384 0.600406 -0.064928 0.450747 -0.386004
sent_61 0.235187 0.018488 0.043536 -0.021491 -0.125145 -0.001464 -0.276114 0.401405 -0.050858 0.243257 0.195922 0.328020 0.134375 0.255418 0.112789 0.157673 0.102178 0.392571 0.454440 -0.271075 -0.086841 0.164327 -0.029699 -0.415938 -0.201960 -0.191695 -0.201594 -0.089537 0.564344 0.189656 -0.317198 -0.240214 0.013610 -0.359199 0.331007 -0.052307 0.050303 0.070647 0.400126 0.724623 -0.479659 -0.206916 -0.187975 0.578056 -0.428755 0.662926 0.240743 0.013554 -0.499282 -0.061703 -0.178149 -0.224935 0.034180 -0.360261 -0.321731 -0.125502 0.346794 0.029541 0.001185 -0.376324 -0.315201 -0.070179 0.197326 0.030840 -0.473164 -0.427207 -0.348988 0.168039 0.164363 -0.283127 -0.091238 0.477719 -0.662346 -0.253754 -0.189135 0.251660 -0.009370 -0.186078 -0.450267 0.278989 0.180120 -0.601421 0.161221 0.193024 -0.321903 0.236557 0.321900 0.294397 0.174721 -0.041319 -0.423193 -0.268570 -0.292653 -0.094946 0.472280 0.266265 0.350857 0.368466 0.029093 -0.047573
sent_62 -0.118690 0.334527 0.094929 0.061264 -0.073978 0.334170 -0.073202 0.006812 -0.019832 0.467395 0.149002 0.004431 -0.293557 -0.096969 -0.053498 0.012142 0.192717 -0.071098 -0.153935 0.062113 -0.194639 0.321089 -0.159017 -0.187175 0.088463 -0.261077 -0.032279 0.057460 -0.219116 0.302734 0.041189 0.405167 -0.123972 -0.021618 0.282866 0.011553 -0.094643 -0.087030 0.055982 -0.029809 0.086085 0.235639 -0.078007 0.049887 0.239615 0.027796 -0.205208 -0.099520 0.154103 0.255977 0.140472 0.060983 0.155148 0.416153 -0.093604 -0.240935 0.295955 0.193954 -0.171912 -0.437765 0.209635 -0.119233 -0.084964 -0.094299 -0.168122 -0.315070 -0.187468 0.483318 -0.175784 0.019877 0.140222 0.269720 -0.941950 -0.217676 -0.016269 0.150716 0.070298 -0.255340 0.015229 0.239908 0.212073 -0.047900 0.354075 -0.215204 0.051905 0.147005 0.344354 -0.159273 0.001595 -0.426909 0.163425 -0.201021 -0.450914 0.041877 -0.433143 -0.075777 0.508285 0.162077 -0.084065 0.059154
sent_63 -0.470173 -0.222606 0.223896 0.466608 -0.078335 -0.149340 0.176181 0.030329 0.065859 0.176816 0.198007 -0.245433 -0.034563 0.131104 0.139115 0.242831 0.190546 0.131006 -0.177404 -0.165937 0.164399 0.045450 0.028744 0.078726 -0.327404 -0.060730 0.022022 -0.239635 -0.219944 -0.054997 0.223513 0.217801 -0.162558 -0.179882 0.206690 -0.033631 -0.184592 -0.256290 -0.077332 0.235546 -0.242208 -0.135519 -0.193980 0.226301 -0.040430 0.053027 0.385126 -0.104740 -0.048306 -0.104105 0.049553 -0.099232 -0.109482 0.066644 0.045069 0.198627 0.033827 0.070754 -0.048280 -0.293261 -0.198814 -0.139059 -0.281553 -0.286406 -0.403043 -0.204671 -0.106779 0.478921 0.171708 0.013280 -0.089675 0.151769 -0.102603 -0.277673 0.075589 -0.104542 0.078428 0.161912 0.016798 0.179552 0.167540 0.069984 0.098098 0.224326 0.239304 0.244146 0.009504 0.124050 -0.127911 -0.156021 -0.010200 -0.389962 -0.033221 0.104920 0.014029 -0.138276 0.062975 0.248300 0.168089 0.098580
sent_64 -0.092639 -0.090371 -0.232246 0.151356 -0.009626 -0.129600 0.147488 -0.152473 -0.208212 -0.120738 0.325699 -0.070982 0.264439 0.313044 0.036234 0.297993 0.173627 0.011164 -0.307673 -0.270146 0.109964 -0.008253 0.519885 0.083159 0.215659 0.183336 0.143020 -0.245501 0.311696 0.008285 0.186417 -0.408108 -0.015432 -0.067374 -0.086237 -0.324447 0.033931 -0.008283 0.172213 0.357584 -0.005088 -0.107163 0.638698 0.079906 -0.516904 0.159120 0.186274 0.037052 0.213789 -0.123287 -0.100913 0.099892 -0.022303 0.033337 0.183111 -0.270052 0.299792 0.209867 0.003002 0.019186 -0.098286 -0.252111 -0.452557 0.517207 -0.325682 -0.354734 0.084854 0.353881 0.155602 0.093490 0.112770 0.172300 -0.365195 0.104131 -0.178944 -0.077309 0.117772 0.513767 -0.575035 0.532684 0.117979 -0.237721 0.132239 -0.127327 -0.347389 0.046285 0.123447 0.178345 0.130748 0.051798 -0.013647 -0.104690 0.187893 0.367675 0.412370 -0.178224 0.271200 0.663375 0.206920 -0.137243
sent_65 -0.269427 0.022662 0.053261 0.085580 0.166007 -0.254783 0.097872 0.102247 -0.010424 0.209330 0.004599 -0.362269 -0.053685 0.051482 -0.278992 0.216856 -0.238323 -0.075313 0.043388 0.033730 -0.009985 0.210966 0.229043 0.025187 -0.289278 0.067011 -0.207509 0.119267 -0.131199 0.005290 -0.078945 -0.233856 -0.458533 -0.141444 0.164064 -0.011708 -0.150056 0.011867 0.065016 0.216839 0.136333 -0.110476 -0.041300 0.117243 -0.190293 0.121136 0.014227 0.452585 -0.080614 -0.029790 -0.115631 -0.116687 0.120863 -0.029604 -0.315534 -0.064797 0.257606 0.230377 0.004237 -0.069657 0.054621 -0.324688 -0.048291 -0.147391 -0.092028 -0.149908 -0.198427 -0.017299 0.242106 -0.115065 0.064759 0.259246 -0.153327 0.017478 -0.195268 -0.027421 0.182453 -0.079052 -0.296491 0.317168 -0.002378 0.031688 -0.003454 -0.218371 -0.196943 0.243791 0.152063 0.009896 0.178787 -0.067226 -0.165207 -0.107069 -0.130787 0.034955 0.313188 -0.005021 -0.015127 -0.059558 0.427736 0.016731
sent_66 -0.248388 0.462995 -0.010785 -0.280502 -0.187060 -0.111430 -0.036720 -0.104397 0.079392 0.172880 -0.218183 -0.326655 0.028425 0.203315 -0.056939 0.037142 -0.021342 0.044893 0.020188 -0.337175 0.187940 -0.025230 0.459034 0.034583 0.104161 -0.046785 -0.017863 -0.245798 -0.066236 0.130071 -0.066793 0.077799 -0.009701 -0.036999 0.045058 -0.071041 -0.068840 -0.261040 -0.006027 0.008715 -0.031332 0.067695 -0.024747 0.300007 -0.066974 -0.113610 0.209222 0.283432 -0.088542 -0.128770 -0.036615 0.111387 0.112480 0.134629 -0.221273 -0.135000 0.160487 -0.134407 -0.108276 0.164510 0.060910 0.275830 0.356729 -0.351434 0.130299 0.007081 -0.080139 -0.460623 0.381749 0.136985 -0.000211 0.054800 0.095794 0.268681 -0.117951 0.025507 -0.199143 -0.070805 0.151075 -0.054644 0.048216 -0.011565 0.085776 0.337022 -0.413843 -0.220751 -0.054128 0.120264 0.019529 -0.255080 -0.492695 0.455737 -0.349342 -0.173775 -0.047059 -0.053261 0.045671 -0.412257 0.290667 0.094276
sent_67 -0.335494 0.205381 0.023024 -0.223552 -0.080722 -0.165088 0.240527 0.057321 -0.241800 0.076497 -0.229006 -0.359408 0.218648 0.033557 0.035150 -0.029416 0.091246 -0.276736 0.030005 -0.035887 0.058886 0.021941 0.418901 -0.031005 -0.026940 -0.106296 -0.094870 -0.188537 -0.037991 -0.060179 -0.024057 0.106378 -0.063460 -0.022688 -0.077588 -0.101629 0.079112 -0.094897 -0.048740 0.004224 0.013743 -0.014572 0.109937 0.203845 -0.090282 0.007553 0.191287 0.167891 -0.006715 -0.231145 -0.009088 -0.173094 0.095450 0.083215 -0.026250 0.084874 0.275187 0.055331 -0.026367 -0.207475 -0.225494 0.098779 0.222360 -0.288514 -0.015568 0.102979 0.024188 -0.156369 0.513305 -0.028167 0.081997 0.290919 -0.109469 0.191707 -0.119554 -0.055828 -0.059225 0.030228 -0.145555 -0.074526 -0.133641 -0.144858 0.221719 0.172377 -0.089885 -0.163613 0.091829 0.374231 0.118376 0.131243 -0.173636 0.154028 -0.003150 -0.313614 0.119163 0.088848 -0.056016 -0.300900 -0.122575 -0.034516
sent_68 -0.091139 0.200392 -0.062099 0.308505 -0.185753 0.029790 0.217633 -0.059681 0.301264 -0.115824 0.034843 -0.173535 0.058082 -0.063299 0.272176 0.002879 -0.363773 -0.133964 0.174101 -0.066848 -0.269406 0.033414 -0.224919 0.199964 0.248601 -0.020241 -0.223192 0.091231 0.000892 -0.345618 0.346237 -0.087640 -0.318156 -0.229419 -0.049641 0.628107 -0.377394 -0.198393 0.054741 0.014966 0.107436 -0.035974 0.160117 0.114111 0.175217 -0.282466 -0.000639 0.074913 -0.124686 0.152247 -0.053702 0.014291 -0.038763 0.126977 0.326667 -0.016707 0.275649 0.135038 0.330680 0.209551 -0.117015 0.371593 0.125216 -0.098572 -0.006161 0.237595 -0.402721 0.281523 -0.019969 -0.256426 0.167251 -0.105009 0.159456 -0.361298 0.009064 -0.395182 0.133780 -0.246151 0.125782 0.548365 -0.153141 0.158786 0.045000 0.036299 0.042047 -0.286499 0.275591 -0.010173 -0.527848 -0.064224 0.059206 0.156662 0.283494 -0.345061 0.525628 -0.092982 0.296142 -0.205183 -0.077984 -0.286364
sent_69 -0.070931 0.046845 -0.123336 -0.228466 -0.154462 -0.144432 0.121365 0.140152 -0.013756 -0.067410 -0.110503 0.076417 0.119713 -0.055256 0.050747 -0.036554 0.117492 0.071979 -0.127013 0.043515 0.185459 -0.024513 0.068287 -0.006480 0.120876 -0.147099 0.051574 -0.116999 0.016722 0.124690 -0.061277 -0.007993 0.069333 0.111419 -0.043090 -0.119373 0.015461 0.093229 -0.154223 0.013385 -0.186372 0.103002 0.016563 0.007476 0.001696 -0.052158 0.120321 0.145148 0.019983 -0.121673 0.201099 0.096168 0.078377 0.120081 -0.195264 -0.095893 0.154202 -0.047267 -0.047359 -0.106478 -0.117475 0.073009 0.060985 0.081623 -0.050887 -0.010877 -0.123416 -0.033392 0.363169 -0.189048 0.100388 0.190180 0.061690 -0.106411 0.093961 0.091019 -0.238178 -0.027553 -0.117663 -0.191141 -0.220308 -0.092624 0.220575 0.173590 -0.004101 0.176086 -0.067559 0.244871 0.055879 0.132050 -0.064766 0.182590 -0.001172 -0.261558 -0.147768 0.087225 -0.071909 -0.030445 0.142468 -0.027422
sent_70 -0.037936 0.119153 -0.095364 0.053067 -0.256571 0.138665 -0.007254 -0.089999 -0.132099 0.157168 -0.132194 -0.316270 0.132534 0.117120 0.015065 -0.104294 0.394105 0.223561 -0.011286 -0.013918 0.136356 -0.102419 -0.014720 0.063543 0.047677 -0.205414 0.076340 -0.060578 -0.056350 -0.196616 0.077620 0.116559 0.290338 -0.042951 0.276024 -0.095556 0.076097 -0.175267 -0.066636 0.080957 -0.373465 0.054089 0.253817 0.172328 -0.083488 -0.349058 -0.074111 0.122730 0.048029 0.058901 -0.063761 0.034083 -0.075328 -0.125717 -0.082383 -0.186413 0.124635 0.027699 -0.184097 -0.390263 -0.162126 0.161507 0.063289 0.085864 -0.283491 -0.092942 -0.193403 0.101364 0.035940 -0.116966 0.115675 -0.058432 -0.204362 -0.294341 0.110623 -0.045690 -0.048047 -0.166417 0.055932 -0.171954 0.040979 -0.210528 0.025411 0.302326 -0.113358 0.231383 0.108407 0.103822 -0.043364 0.229935 -0.241005 0.356469 -0.151315 -0.209791 -0.158228 -0.187140 0.151154 -0.119142 0.183988 0.212133
sent_71 -0.074073 0.166832 0.174895 0.312204 0.026803 -0.416213 -0.290018 -0.175033 0.081282 0.049109 0.157940 0.339360 0.076365 0.097441 0.292591 -0.069209 -0.408598 -0.290881 -0.269368 0.107338 0.182322 0.021843 0.151900 -0.151524 -0.330414 0.113916 -0.238249 0.131248 -0.180318 -0.348569 0.524403 -0.056652 0.099249 -0.042119 -0.037759 -0.330912 0.256749 0.088225 0.182299 -0.155753 -0.119122 0.100822 0.246661 -0.270217 0.127181 0.193255 0.111343 -0.068786 0.018747 0.247420 0.350740 0.161379 -0.195789 0.069600 0.076108 -0.319288 0.181963 0.074495 -0.010843 -0.186467 0.116512 -0.259741 -0.333606 0.330181 -0.230894 -0.039220 0.283003 -0.159584 0.223237 0.077232 -0.117089 0.180738 0.193943 0.225436 0.097164 0.008182 -0.096617 0.324415 -0.387390 -0.022282 0.246021 0.065596 0.071290 0.032151 0.360508 -0.037119 -0.181297 0.735873 -0.220824 -0.183242 0.066090 0.558442 0.252934 -0.071245 0.094000 -0.001997 -0.163933 -0.496926 -0.092970 -0.162755
sent_72 -0.324478 0.379267 0.189057 -0.096485 -0.148274 -0.067586 0.205366 -0.026079 -0.397552 -0.126070 -0.321596 -0.216114 0.166026 0.343172 0.218060 -0.236389 0.177169 -0.176805 0.262315 -0.088851 0.220315 -0.417610 0.304521 0.214858 0.221982 -0.193056 -0.096432 0.015582 -0.202923 -0.158769 -0.001531 0.163097 0.099870 0.081096 0.086570 0.097129 0.135132 -0.048181 -0.091344 0.179321 -0.356412 0.052985 0.055756 -0.137370 0.176974 -0.274915 0.301864 0.221392 -0.340118 -0.137255 0.379311 0.202323 0.142293 0.058972 -0.173084 0.408644 0.474867 -0.257046 0.154820 -0.355447 -0.171271 0.114996 0.176717 -0.306519 -0.234735 0.246596 -0.164745 -0.316823 0.448012 0.018511 0.099366 0.184467 -0.195355 0.086953 0.211312 0.225017 -0.239301 -0.055513 0.217703 -0.316345 0.012532 -0.041634 0.228620 0.005802 -0.208658 -0.162402 -0.317499 -0.077032 -0.089052 0.111984 -0.277701 0.146325 -0.255722 -0.453530 -0.298684 -0.292109 -0.043732 -0.320006 -0.018579 0.186010
sent_73 0.135868 0.276132 -0.227646 0.122496 -0.182088 -0.412433 -0.226108 -0.310053 -0.030685 -0.496636 -0.038467 -0.079089 -0.015722 0.150395 0.086275 -0.236712 -0.071990 -0.157280 -0.109765 0.085074 0.125548 -0.062627 -0.159319 -0.017252 -0.135418 0.222448 -0.351246 0.131843 -0.053732 -0.044772 0.134450 0.001634 -0.146009 0.020015 -0.118210 0.061322 0.214337 0.115330 0.272838 -0.082166 -0.396982 -0.013786 0.217438 0.002594 0.160162 0.116999 0.244794 0.163911 -0.069393 0.051531 0.225828 -0.157065 0.015788 -0.261515 -0.039580 0.056442 -0.086503 0.150141 0.039296 -0.024125 0.109270 -0.259589 -0.008042 0.384452 -0.244208 0.009790 0.330487 -0.110514 -0.097340 -0.088028 0.163207 0.187697 -0.219447 0.079480 0.038392 0.165367 0.152828 0.124210 -0.168483 -0.045535 -0.252316 -0.086764 -0.130771 -0.065339 0.128188 0.161283 -0.242106 0.168860 0.318457 -0.057290 0.194378 0.021566 0.071952 -0.046930 -0.298302 0.085281 -0.120548 -0.441346 -0.038156 -0.150849
sent_74 -0.297815 0.101170 -0.249741 -0.662116 -0.396386 -0.081584 -0.054520 0.043391 -0.115563 -0.044833 -0.301281 0.060464 0.107350 0.105601 -0.020377 -0.159962 0.308736 0.127171 0.158573 -0.358133 0.175076 -0.376069 0.102007 0.116028 0.117292 -0.191310 0.137245 -0.015453 -0.034850 -0.139098 -0.281953 -0.073318 -0.272107 0.023007 0.157092 -0.293514 0.580242 -0.005569 -0.198970 -0.134221 -0.268118 0.243707 -0.316622 0.419627 -0.196105 -0.295016 0.318189 0.060932 -0.497673 -0.292507 0.311951 0.435948 0.072786 0.083446 0.027825 0.049984 0.335883 -0.267673 -0.460407 -0.502204 -0.252195 0.056289 0.400269 -0.266092 -0.174250 0.022754 -0.468185 -0.374856 0.271763 -0.018894 0.417400 -0.022268 -0.065051 0.170637 0.242424 0.100196 -0.170512 -0.460622 -0.142499 -0.454357 0.013373 0.017644 -0.046683 0.306678 0.313132 0.119296 0.066263 0.106397 0.276224 -0.046356 -0.384670 0.615371 -0.094705 -0.523945 -0.463607 -0.399581 -0.114467 -0.181629 0.114343 0.156584
sent_75 0.186147 -0.018750 0.083499 0.234103 0.116599 0.080682 0.050789 -0.127095 -0.300408 0.505165 -0.008300 -0.236570 -0.041228 0.137412 -0.096418 0.330627 0.429772 0.179190 -0.156174 -0.199204 -0.395766 0.141745 0.228257 0.234366 -0.171247 -0.031095 -0.121707 -0.256645 0.163221 -0.426703 -0.028373 -0.054581 -0.359864 -0.263587 0.087828 -0.170376 -0.377184 -0.145228 0.176415 -0.087324 -0.055795 -0.097163 0.135113 0.205857 -0.209048 -0.561831 0.000697 0.256265 0.520884 -0.157838 0.274937 0.320569 0.470304 0.101313 -0.187522 0.220614 0.049922 -0.015117 0.201766 -0.346245 -0.058725 -0.023686 -0.141545 -0.371427 -0.212832 -0.486602 -0.110903 0.169942 0.492536 0.203503 0.198021 0.222465 -0.235209 -0.039730 -0.372880 0.175697 0.158724 -0.072780 -0.163420 0.380530 -0.118076 0.211388 0.499643 0.059707 -0.019192 -0.013807 0.420982 0.165957 0.072111 -0.254362 -0.369001 0.138529 0.247224 -0.048494 0.068396 0.098030 0.004317 0.459647 0.042984 -0.380736
sent_76 -0.057448 -0.001682 -0.205752 0.071018 0.036825 0.099027 -0.424770 -0.145754 0.151398 -0.013355 -0.059030 -0.243788 -0.375193 0.322463 -0.046984 -0.523995 -0.202571 -0.180964 -0.392342 0.207510 0.352973 -0.478275 -0.152494 0.376331 -0.329479 0.062635 -0.445587 0.079188 -0.285551 0.041309 -0.018269 -0.288043 0.301553 0.024602 -0.177203 -0.230496 -0.124538 0.320609 -0.292742 -0.018306 0.279041 0.032514 0.050356 -0.114966 0.156770 -0.438463 -0.454194 -0.092378 -0.065207 0.007259 0.029577 0.212303 -0.183065 0.201491 -0.196605 -0.059827 -0.012838 0.335875 0.375692 0.277691 -0.774453 -0.327943 -0.072697 0.274288 -0.388812 -0.173674 -0.517411 -0.571392 -0.032787 -0.041312 0.079277 -0.199196 -0.085944 -0.062401 -0.001163 0.215925 -0.005916 0.197081 -0.399843 0.080397 -0.531840 -0.416446 0.391576 -0.329793 -0.538551 0.425510 0.188257 -0.548451 0.024364 0.141501 -0.047624 -0.303230 -0.553353 0.412318 0.051069 0.409411 0.161832 0.129109 0.186288 -0.242980
sent_77 -0.195476 0.081348 -0.124368 -0.050410 -0.157821 -0.070015 -0.119866 0.233530 0.210670 -0.063310 -0.256732 -0.337243 0.072452 0.086321 0.077230 -0.367144 0.190077 0.027355 0.137777 -0.078247 0.197978 -0.377876 0.162421 0.056728 0.080073 -0.281755 0.013653 -0.029066 -0.115594 -0.083656 -0.150432 -0.031592 -0.037305 0.000719 0.081468 -0.230618 0.089299 -0.156225 -0.268805 0.015179 -0.337120 0.070102 0.111345 0.100691 0.072809 -0.121506 0.067777 -0.008447 -0.377809 -0.159549 0.262564 0.287999 0.078161 0.233781 -0.136787 0.011041 0.222620 -0.209089 -0.164504 -0.131884 -0.221836 0.009127 0.095440 -0.081898 -0.119946 0.168084 -0.186959 -0.246001 0.181549 0.035586 0.080994 0.133322 -0.077556 0.152751 0.178743 0.149404 -0.473241 -0.217224 0.132930 -0.157705 -0.013529 -0.224978 0.110076 0.200782 -0.057218 0.192928 0.087452 0.002008 0.093688 0.337682 -0.503838 0.429138 -0.136142 -0.268219 -0.294327 -0.108024 0.077595 -0.232917 0.017519 0.109521
sent_78 -0.052567 -0.006053 0.131153 -0.036157 -0.192915 -0.014501 0.096767 0.021348 -0.101670 0.031461 -0.119292 -0.190488 0.065609 0.029107 -0.058323 -0.188188 0.011952 0.080805 0.043567 -0.110934 0.003516 -0.180653 0.004712 0.056353 -0.147883 -0.145348 0.093957 -0.079263 -0.200657 -0.035144 -0.028355 0.062084 -0.060607 0.058662 0.164186 -0.049754 0.110753 -0.052480 -0.102464 0.025496 -0.269498 0.104595 -0.125531 0.125196 0.063014 -0.027554 -0.001521 0.021953 -0.182427 -0.136263 -0.179815 0.005578 -0.183063 0.161164 0.087508 0.047692 -0.019802 -0.218705 -0.261613 -0.201397 0.008817 0.097512 0.030539 -0.075493 0.103662 -0.082776 0.086116 -0.158627 -0.181112 -0.162383 0.142942 0.094196 -0.198284 -0.250856 0.147216 0.085972 -0.138041 -0.135489 0.131929 -0.006219 -0.176706 0.005686 0.063671 0.297696 -0.081148 0.122199 -0.003811 -0.036711 0.112569 0.051754 -0.312163 0.187567 -0.033280 -0.130420 -0.184471 -0.083526 0.074441 -0.095269 0.000209 0.046491
sent_79 -0.164860 -0.096797 -0.285105 -0.384032 0.110072 -0.027959 -0.078973 0.278504 0.215049 0.064953 -0.174543 0.125426 0.243998 -0.246021 -0.031499 0.140140 -0.302569 0.110090 0.247459 -0.249731 0.268473 0.271523 -0.238852 -0.188784 0.192697 -0.168855 0.296169 -0.010135 -0.021287 0.164067 -0.583411 -0.214545 -0.141697 -0.040821 -0.027474 -0.019988 -0.289506 -0.440613 0.374729 0.577190 -0.450391 0.010184 0.059345 0.257599 0.065603 0.547850 -0.004804 -0.080421 -0.286473 -0.164662 -0.436157 0.199972 -0.418166 -0.154509 -0.323458 -0.268801 0.165822 -0.298989 -0.000231 -0.129118 0.424864 0.291766 0.201001 -0.044959 0.291099 0.033138 0.256883 0.020279 0.437023 -0.316158 -0.005264 0.282178 -0.174506 -0.004400 -0.472900 -0.219063 -0.323395 -0.039622 -0.195361 -0.257212 -0.161872 0.062040 0.307667 -0.257742 0.073480 0.297292 -0.600240 -0.115254 -0.167529 0.214321 -0.018480 0.319793 0.195052 -0.284697 -0.136572 0.507018 0.092676 -0.023468 -0.426358 -0.179127
sent_80 -0.130266 0.147588 -0.129950 -0.211067 -0.524058 -0.339407 -0.037989 0.107016 0.063713 0.101593 -0.163895 -0.342445 0.052240 -0.014814 0.048520 -0.305399 0.258648 -0.011375 0.150632 0.051660 0.066214 -0.460433 0.342906 0.122810 -0.082365 -0.182861 -0.065042 -0.000299 -0.013464 -0.223388 -0.048189 0.233067 -0.068307 0.138956 0.053727 -0.200855 0.164981 0.019539 -0.482285 -0.045179 -0.190403 -0.075409 0.399480 0.321447 -0.045991 -0.163398 0.157852 0.231050 -0.222345 -0.402371 0.122036 0.443649 -0.335771 0.185806 -0.148402 0.303002 0.317681 -0.342370 -0.241106 -0.358116 0.149931 0.249450 0.550274 -0.271523 -0.272201 0.290359 -0.421834 -0.405451 0.095963 0.064941 0.117819 0.231071 -0.102371 0.174608 0.047555 0.024431 -0.886223 -0.365890 0.089197 -0.120175 0.025206 0.115832 0.262300 0.088408 -0.283500 0.246225 0.022102 -0.177368 -0.067232 0.007362 -0.024240 0.528068 -0.297128 -0.468021 -0.307817 -0.598893 0.076245 -0.288344 -0.186591 0.066490
sent_81 -0.237120 0.257917 -0.144961 -0.149410 -0.131005 0.125706 -0.052091 0.010704 0.147418 0.238762 -0.069104 -0.144336 0.115115 -0.046737 0.448990 -0.173516 0.040181 0.051717 0.176386 0.259967 0.173066 -0.137116 0.126736 -0.016242 0.241210 -0.201326 -0.221311 0.109682 0.014440 -0.140061 0.053825 0.113894 -0.191495 0.050503 0.072542 0.160036 0.017992 -0.162379 -0.158537 -0.166854 -0.320604 0.045801 0.098020 0.005137 -0.069379 -0.053359 -0.088619 0.098715 -0.214822 -0.253502 0.124550 0.100352 0.011061 0.112877 -0.051771 -0.046780 0.113556 -0.155802 -0.029091 -0.168124 -0.173327 0.106776 0.328603 -0.071394 -0.222811 -0.088085 -0.190243 -0.106801 0.177490 0.018641 0.096924 -0.013643 -0.247896 -0.080843 -0.063646 -0.090982 -0.283888 -0.160408 -0.021615 -0.189697 -0.047734 -0.023012 0.076247 0.275085 0.118152 0.071195 -0.075168 -0.105987 -0.056118 0.045773 -0.151801 0.414959 -0.229500 -0.297678 -0.078237 -0.280971 0.108353 -0.167969 -0.174102 0.025888
sent_82 -0.081429 0.143931 -0.073788 0.079006 0.023112 -0.139567 0.147562 0.119027 -0.039931 0.188052 -0.014088 -0.264021 0.265821 -0.071128 0.322582 -0.066140 0.062660 -0.255566 -0.083599 0.222690 0.236224 -0.096821 0.290322 -0.008884 0.294163 0.291976 -0.038031 0.112860 0.154113 0.182856 0.194267 0.204870 -0.274176 0.184600 0.054904 0.194653 0.013582 -0.069996 0.285903 -0.057564 0.210381 0.076259 0.183661 -0.094753 -0.012644 0.209552 0.144418 0.174677 0.170152 0.127239 -0.031132 -0.140123 0.183694 -0.152181 -0.081528 -0.024796 0.228613 -0.152184 0.220186 -0.337867 -0.300140 0.060201 0.007409 -0.045220 0.199446 0.059075 0.052897 0.038261 0.018184 -0.285539 0.173913 0.156882 0.031435 -0.136581 -0.172944 -0.127789 0.126683 0.193053 -0.013847 0.077347 0.081693 0.065186 0.051750 0.127114 -0.103555 -0.111558 -0.119167 -0.000271 -0.100760 -0.111426 0.048385 0.024658 -0.171383 -0.127851 -0.077473 -0.088638 -0.211926 0.061535 -0.044713 0.118306
sent_83 -0.228831 0.250281 -0.151279 -0.108252 0.043068 0.156611 0.147352 0.026540 0.029938 0.028882 -0.078429 0.011405 0.151584 -0.218931 0.104397 -0.111683 0.138582 0.099749 -0.049380 0.246672 0.048282 -0.142281 0.038451 -0.118888 0.015520 0.225915 -0.188592 0.143414 -0.115696 -0.309309 0.337985 0.129537 -0.135498 0.227754 -0.097543 0.058853 0.152134 0.078942 -0.089121 -0.363673 0.016066 0.096162 0.225411 0.035857 -0.028288 -0.030054 -0.045552 0.013479 0.078337 -0.081337 0.175512 -0.100926 -0.066964 0.090959 0.151229 -0.082370 0.151508 -0.087319 -0.076909 -0.210008 -0.225214 0.249273 -0.184624 -0.201431 0.030213 -0.075410 -0.061587 -0.069361 0.200156 -0.105635 0.299031 0.078981 -0.118104 -0.147063 0.019882 -0.260027 0.110919 -0.173987 0.049018 -0.052295 0.139892 -0.015976 0.232906 0.090670 -0.324827 -0.204163 -0.252057 0.206500 0.088871 -0.144877 0.078785 0.166802 -0.159520 -0.300084 -0.032338 -0.001654 -0.009156 -0.256845 -0.053784 0.101918
sent_84 0.324415 0.693339 -0.116532 0.289665 0.223073 0.253095 0.160670 0.034498 -0.421693 -0.103274 0.547884 -0.074400 0.064974 0.007244 0.279291 0.003453 0.356986 0.314823 0.182805 0.169970 -0.056426 0.211221 0.066210 -0.138324 -0.097463 0.028763 -0.105092 0.087303 0.070374 0.189534 -0.025527 0.067927 0.299613 0.170994 0.316210 0.309791 -0.495911 -0.043340 0.431628 0.267868 -0.546059 -0.014506 -0.039088 0.085146 -0.558901 0.027858 0.275631 -0.071736 -0.200783 -0.310859 -0.302942 0.202359 0.655109 -0.315503 0.388374 -0.133859 -0.122784 -0.206919 0.238820 -0.034437 -0.336531 -0.072322 0.279401 0.174716 -0.040101 0.291620 -0.020147 0.079903 -0.084685 0.288402 0.314662 -0.169104 -0.481773 -0.345925 0.197428 0.257983 -0.055698 0.087995 -0.137424 0.296935 0.188751 0.310746 0.446461 -0.056640 -0.213221 -0.070431 -0.336152 0.417678 0.127761 -0.128176 0.093740 -0.125316 0.026396 -0.253733 -0.054896 -0.304524 0.137961 0.405088 0.028433 -0.378828
sent_85 -0.127615 -0.001348 -0.077878 0.226029 -0.081096 0.036555 0.043528 0.295058 0.131894 0.185705 0.250294 0.169149 -0.019944 0.205131 0.196243 0.003783 -0.092845 -0.150978 0.027932 -0.071887 0.082023 0.072028 0.188688 -0.030562 0.221267 -0.041673 -0.109100 0.206328 -0.124534 0.094610 0.055201 0.023077 0.296227 0.147454 -0.140860 -0.108104 0.165996 0.002199 0.174427 -0.061221 -0.222957 0.266192 0.193898 0.105577 -0.093408 0.108153 -0.046033 0.089348 -0.093378 0.080938 0.271977 -0.121444 0.139163 0.094527 -0.145191 -0.097852 0.249226 -0.058967 0.105680 -0.012806 -0.154286 -0.027849 -0.085314 0.051997 -0.158293 -0.057323 -0.018544 -0.093898 0.339570 -0.003073 0.145611 0.212823 0.052583 -0.062630 -0.069031 0.014438 0.115815 0.192740 -0.244305 0.012022 0.437335 -0.299997 0.080332 0.138718 0.111412 -0.192118 0.106723 -0.006775 0.066863 -0.190213 0.038076 0.118925 -0.009322 -0.297149 0.116437 0.084448 -0.181168 0.045684 0.047576 0.123356
sent_86 -0.164853 0.140150 0.211738 -0.135874 -0.266159 -0.152449 -0.009075 0.059136 -0.106907 0.096797 0.044504 -0.180432 0.028095 0.020249 0.028362 0.165741 0.133497 -0.211491 0.167792 -0.026876 0.158663 -0.243070 0.282823 -0.105263 -0.051863 0.026200 0.088185 -0.036979 0.182488 -0.341376 -0.033153 0.170475 -0.267418 0.029893 0.201993 -0.143944 0.247152 0.127752 -0.107678 0.251757 -0.302500 -0.023993 -0.011536 0.006762 -0.353847 -0.142579 0.153669 0.211535 -0.072787 -0.077866 0.123512 0.026559 -0.059758 -0.055861 0.039092 -0.263869 0.179191 -0.054282 0.107614 -0.191201 0.114687 -0.120339 -0.046067 -0.167539 -0.361359 0.005189 0.005260 -0.192016 0.319695 0.169267 0.434191 0.040365 -0.438516 0.034243 0.006864 0.369719 -0.190039 -0.152075 0.230010 -0.197163 0.017826 -0.000250 -0.013117 0.214908 0.103574 0.009914 0.109861 -0.122625 0.053204 -0.183814 -0.128052 0.334221 -0.073120 -0.295573 0.025461 -0.050098 0.298085 -0.345391 0.077477 0.027299
sent_87 0.092076 0.027540 0.092532 0.340369 0.152564 0.488765 0.125234 -0.097338 0.065678 -0.112976 0.214924 0.034761 -0.161777 0.307179 0.210910 0.074731 -0.010874 -0.176907 -0.195482 0.184245 -0.070964 0.083352 0.063612 -0.219897 0.238766 -0.056269 -0.004204 0.117930 -0.001838 0.040535 -0.142333 -0.059474 -0.050740 0.003992 0.179180 0.217774 -0.069949 -0.131370 0.307372 0.086468 -0.140135 -0.192518 0.323387 -0.100659 0.168878 0.418717 0.127594 0.254223 0.259913 -0.197617 0.051775 0.017857 0.180247 -0.344376 -0.264710 -0.288383 0.147941 -0.022017 0.026910 -0.210794 -0.297693 -0.065728 -0.130636 0.341307 -0.154628 -0.092417 0.107572 0.402360 -0.477192 -0.050724 -0.043213 0.209280 -0.169279 -0.087922 0.228212 -0.065773 0.034462 -0.155108 0.086143 -0.124762 0.202230 -0.278906 0.189204 -0.127628 -0.009713 -0.149688 0.001961 0.259375 0.202292 -0.168927 -0.078945 -0.198065 -0.221694 -0.277399 -0.108006 -0.200990 -0.086704 0.032463 0.071808 -0.397587
sent_88 -0.256735 0.189838 0.174604 0.038783 0.043963 0.412384 -0.050509 -0.033153 0.217884 0.077284 -0.005637 0.029539 0.174725 0.537776 0.262483 -0.176297 0.152937 0.061212 -0.075777 0.082487 -0.041736 0.076739 0.073997 -0.359462 0.471182 0.022097 -0.104065 -0.231740 -0.219969 0.111888 -0.071111 0.031208 -0.037994 -0.032389 0.142081 0.169271 0.003257 -0.022851 0.471262 -0.032816 -0.232647 -0.109815 0.372133 -0.283922 0.025089 -0.098699 0.164681 0.084092 0.169657 -0.292941 -0.042189 -0.234585 -0.172465 -0.123907 -0.038068 -0.123183 0.036397 -0.142964 0.110862 -0.103869 -0.275364 -0.240728 -0.171329 0.265306 0.021797 -0.078500 -0.034052 -0.023841 0.030161 0.119509 -0.051793 0.069998 -0.112329 -0.028276 -0.086801 -0.139457 -0.018053 -0.299169 -0.056722 0.065615 0.125099 -0.163297 0.278374 -0.046333 -0.071645 0.053375 0.023268 0.014570 0.166536 -0.025570 0.190795 -0.096952 -0.044193 -0.234535 0.059212 -0.240742 0.122529 0.101829 0.034218 -0.210204
sent_89 -0.319993 0.025587 -0.173152 0.298723 0.027855 0.082537 0.030289 0.172629 0.228016 -0.289882 0.107814 0.291627 0.182506 0.360864 0.140595 -0.137588 0.336013 0.155256 -0.261409 0.260681 0.145115 -0.160616 -0.163727 0.145068 0.411637 0.112549 -0.279637 -0.427171 -0.228723 0.048003 0.354008 0.065367 0.230050 -0.390751 -0.062395 -0.186953 -0.007801 -0.528404 0.260563 -0.288625 0.319518 -0.081190 0.168552 -0.405547 -0.323480 -0.456106 -0.614569 0.133672 0.050193 0.365274 0.399583 -0.090636 -0.170895 0.270606 0.147104 0.250882 0.089825 -0.157224 -0.359615 0.085472 0.277502 0.428035 0.098903 0.044712 0.009290 0.183836 -0.047152 0.064921 -0.244288 0.388140 0.353145 0.050708 0.251858 0.039709 0.115683 0.004897 0.451803 -0.396402 0.080240 -0.193929 0.246158 -0.382852 0.553592 0.085037 0.167143 -0.356285 0.002782 0.002498 -0.354526 -0.185517 -0.098086 -0.079805 0.107598 -0.046622 0.234309 -0.036829 0.500128 -0.142059 -0.107081 0.007596
sent_90 -0.098934 0.106666 0.117307 0.104146 -0.038268 -0.160388 0.330273 0.077332 -0.025534 0.019061 -0.008024 -0.129364 0.039981 0.226815 0.049652 -0.107668 0.047035 -0.103279 0.089527 0.117742 -0.004942 -0.141445 0.158756 0.182530 0.070149 0.074053 -0.188736 -0.064591 -0.083126 0.044313 0.063976 0.045475 0.297356 -0.055132 0.228096 0.141450 0.109998 -0.030349 -0.028106 0.101290 -0.134086 0.040769 0.196203 0.220569 -0.128164 -0.123465 0.212192 0.032037 -0.122120 -0.127346 0.104465 0.058517 0.097163 0.013736 0.026504 0.099391 0.326251 0.154688 0.064368 -0.095386 -0.143156 0.103241 -0.050191 0.030818 -0.125385 -0.114283 -0.089370 -0.181766 0.111911 0.144614 0.062714 0.200801 -0.141100 0.069662 0.067996 -0.084633 -0.083027 -0.076681 0.038793 0.042209 0.088087 0.003515 0.171359 0.016858 -0.239214 0.097417 -0.110770 0.078261 -0.008981 -0.008862 -0.040818 0.015365 -0.157942 -0.178666 -0.016527 -0.012004 -0.079495 -0.042598 0.088723 0.198133
sent_91 -0.045806 0.161868 -0.222771 0.244621 -0.206850 -0.014108 0.133750 0.197401 0.183032 -0.081630 -0.054288 -0.119191 0.113846 0.137639 -0.124508 0.010603 0.267464 -0.106726 0.081122 0.089260 -0.015441 -0.236502 0.104802 0.237497 0.216157 -0.073464 -0.139478 0.004569 -0.122088 0.151105 0.178361 0.077987 0.154127 0.068106 0.286204 0.029606 -0.070838 -0.064804 0.090875 0.112026 -0.336688 -0.188360 -0.051629 0.032850 -0.183508 -0.298663 0.180850 0.055073 -0.030706 -0.023520 0.012526 0.293528 0.058051 0.102206 -0.058825 0.113564 0.260716 -0.122972 -0.045277 -0.454216 -0.034463 0.155493 0.147999 -0.118978 -0.097440 0.033079 -0.128238 -0.410845 0.057860 0.070231 0.116158 0.184666 0.018234 0.053846 0.232498 -0.027984 0.007208 0.001196 0.042023 0.190548 -0.062583 0.071405 0.118238 -0.051431 -0.207857 -0.132420 -0.086508 -0.095802 -0.072466 -0.089493 -0.222441 0.045663 -0.393916 -0.031289 -0.010011 -0.150729 -0.201390 -0.125540 0.004675 0.040871
sent_92 0.074132 0.198272 0.087931 0.144114 -0.144842 0.016210 0.137998 0.022300 0.013884 -0.021637 -0.055404 -0.051954 0.004143 0.201055 -0.040077 -0.005441 0.279517 -0.052992 0.130650 0.142195 0.070643 -0.189668 0.149370 -0.011310 0.242019 -0.221580 -0.183863 -0.002715 -0.158477 0.088823 0.173098 0.110368 0.063785 -0.056662 0.182628 0.189410 -0.164496 -0.059425 0.205183 0.007274 -0.205469 -0.099225 0.045354 -0.294505 -0.105755 -0.364468 0.243956 0.000642 -0.015574 -0.009547 0.156741 0.057901 0.167098 0.044118 0.021046 0.066461 0.192642 -0.080486 -0.021090 -0.316267 -0.076324 0.040342 0.093070 0.033738 -0.251364 0.186523 -0.074477 -0.079250 -0.078025 0.168283 0.294393 0.170453 -0.109389 0.054962 0.044683 0.008537 0.008559 0.028716 -0.165021 -0.004188 0.081227 0.139536 0.312157 0.057785 -0.199368 -0.328894 -0.118554 -0.184952 -0.109727 -0.124671 -0.195850 0.133863 -0.180557 0.018475 -0.023457 -0.233233 -0.174836 -0.053807 0.017302 0.069100
sent_93 0.089042 0.197074 -0.129083 0.060460 -0.010392 0.247138 0.303091 0.060888 0.306145 0.039666 0.070576 -0.147257 -0.084561 0.011000 0.030619 -0.118052 0.200246 0.048631 0.036610 0.217791 0.182791 -0.173802 0.138395 0.147721 -0.087951 0.072678 0.211649 -0.064580 -0.054608 -0.494886 0.091310 -0.030716 -0.070797 0.031478 -0.114256 0.168962 0.171824 -0.233555 0.324510 -0.260442 -0.267658 -0.078305 -0.003748 0.078458 -0.122257 -0.236311 -0.377788 -0.037926 0.037433 -0.078622 -0.039914 -0.051418 0.395089 -0.175381 -0.053422 -0.186372 0.599550 0.304569 0.073361 0.015429 -0.393239 -0.180653 -0.090629 0.018546 -0.129332 -0.063559 -0.091851 -0.144858 0.243994 0.068433 0.023721 0.132163 -0.332054 -0.089108 -0.245627 -0.197465 -0.000519 0.056268 -0.001321 -0.086618 -0.174980 -0.045749 0.194727 -0.101497 -0.029881 -0.018902 -0.085033 0.241685 0.239572 -0.316140 0.000330 0.090453 0.001838 -0.080863 -0.381709 -0.269332 0.179559 -0.163057 0.031424 -0.046051
sent_94 0.394373 -0.113757 -0.253297 -0.338711 0.649759 0.123922 0.156432 0.106248 0.100647 0.003399 -0.311497 0.220429 0.287290 -0.303265 -0.266440 0.044864 0.033661 0.131882 0.008711 0.122584 -0.148104 -0.385786 0.089674 0.395803 0.098505 -0.085324 -0.207427 0.336942 0.228119 -0.411647 -0.123090 -0.250732 -0.380777 0.179859 -0.612376 -0.214514 -0.066020 0.455632 0.372653 -0.250461 0.273462 0.107265 -0.243294 -0.103310 -0.290418 0.220153 0.105932 -0.207681 0.041850 0.408536 0.505477 -0.152367 0.182558 -0.231519 -0.320304 0.158123 0.747782 -0.147712 -0.163507 0.330588 -0.520130 0.052152 0.056730 0.189214 -0.147606 -0.275905 -0.427002 -0.551732 0.270266 -0.264644 -0.045534 0.298646 -0.250092 0.303860 -0.493443 0.767369 -0.002797 -0.015824 -0.117526 -0.425588 -0.367905 -0.158627 0.555347 -0.422549 -0.182172 0.421130 -0.330467 -0.058613 0.120381 -0.380666 -0.562499 -0.053556 -0.148847 0.043554 -0.812476 0.127295 -0.014941 0.461853 -0.284285 -0.214068
sent_95 -0.107966 0.442027 -0.292881 0.130363 -0.097082 -0.186344 -0.168070 -0.651710 -0.480013 -0.139352 -0.307877 -0.030096 0.332228 -0.243784 0.401139 0.234422 -0.128939 -0.179957 0.301235 0.362638 0.079873 -0.315215 -0.203908 -0.073682 -0.183441 0.125021 -0.516213 0.442951 -0.254952 -0.105749 0.244568 0.258993 -0.220714 0.157723 -0.080504 0.448650 -0.039190 0.059046 0.304775 -0.576057 0.122038 -0.240106 -0.066735 -0.232715 0.102320 0.110674 0.040690 -0.063929 -0.263885 -0.335419 0.199330 -0.240048 -0.233622 -0.112755 0.320644 0.153551 0.353349 0.303480 -0.149406 -0.168209 -0.166275 0.024359 0.113321 0.286586 0.028493 0.067273 0.094653 0.162596 -0.165973 0.082040 0.195336 -0.350614 0.055749 -0.494345 -0.115838 0.060230 0.028460 0.348805 -0.220988 0.117784 -0.005277 -0.088836 0.116841 -0.007547 0.052977 0.004980 -0.047224 -0.120927 -0.069161 0.150429 0.464152 0.058941 -0.140105 0.123252 0.058447 -0.054168 -0.112003 0.194344 -0.061203 0.070942
sent_96 -0.208317 0.100401 0.097566 -0.163569 -0.160552 0.164522 0.039383 0.123696 0.072084 -0.055336 -0.078122 -0.146040 -0.019891 0.061638 0.113944 -0.309736 0.118046 -0.040241 -0.065094 0.093309 0.212112 -0.176739 -0.037906 0.225043 0.110767 -0.201219 0.057082 -0.129736 0.014451 -0.094366 0.080069 0.177511 0.156753 0.078897 0.083220 -0.169393 0.184746 -0.091476 -0.130590 -0.129664 -0.331887 0.145250 0.059556 0.228020 0.100045 -0.283257 0.043173 -0.011966 -0.161365 -0.255684 0.190252 0.117646 0.209667 0.143828 0.177659 -0.049560 0.139540 -0.155113 -0.056600 -0.251939 0.023842 0.287263 0.071378 -0.075487 -0.151857 0.115631 -0.168939 0.034155 0.168126 0.089283 0.183876 0.110702 -0.233707 -0.009481 0.024409 0.050785 -0.397797 -0.224614 0.087250 -0.084192 0.009571 -0.199303 0.210380 0.170896 -0.138140 0.087068 0.112546 -0.189709 0.062456 0.185019 -0.064919 0.523444 -0.177246 -0.214217 -0.248302 -0.239225 -0.011449 -0.241747 0.023648 0.040132
sent_97 -0.290948 0.269309 -0.059808 -0.293608 -0.010345 -0.027110 0.124117 -0.125691 0.233656 0.114959 0.474655 -0.000109 0.390803 0.228128 0.330832 0.087930 0.294433 0.026205 0.172106 0.140424 0.081980 0.213887 -0.092941 0.011347 0.209809 -0.082240 -0.184672 -0.164019 -0.085916 -0.008362 0.242251 -0.041263 0.072291 0.245751 0.234699 0.356389 -0.401214 -0.649108 0.334495 -0.046102 -0.402322 -0.276215 0.434933 0.319827 -0.253985 -0.579877 -0.163632 0.368199 0.599160 -0.521702 0.108385 0.078565 -0.215656 -0.082080 0.197771 -0.597048 -0.394754 0.105801 -0.077388 -0.597059 -0.327697 -0.570634 -0.272878 0.053070 -0.471769 -0.109919 -0.291112 0.418131 0.020972 0.380815 0.179641 0.194627 -0.677176 -0.026686 -0.352555 -0.312088 0.256322 -0.170523 -0.119985 0.100446 0.076805 0.123131 0.368636 0.229584 -0.062704 -0.270317 0.132478 -0.166541 -0.028567 -0.087183 -0.556799 0.512099 -0.561688 0.033283 0.053341 -0.332711 0.190292 -0.312607 0.236278 -0.030545
sent_98 -0.125089 0.116975 0.057591 -0.013010 -0.115484 0.041940 0.067972 0.057194 -0.039063 0.165880 -0.101295 -0.282176 -0.056926 0.049860 0.022023 -0.045997 0.111548 -0.013097 -0.109075 0.055025 0.182651 0.018611 0.035353 0.178546 0.068450 -0.072814 -0.208141 -0.134029 0.054982 0.061505 0.032522 0.061991 0.110794 0.108937 0.088266 -0.144395 0.120442 -0.098444 -0.027417 -0.149606 -0.165072 0.059032 0.185409 0.003973 -0.031866 -0.019054 0.165610 0.396215 -0.026790 -0.011980 0.033566 0.114872 -0.097575 0.184923 -0.279510 0.004263 0.195308 -0.146904 0.009525 -0.315539 -0.039302 0.110857 0.189571 -0.059704 -0.119086 0.253176 -0.284613 0.140043 0.332057 0.177629 -0.019676 0.115693 -0.153504 0.043038 -0.057390 -0.059918 -0.141266 -0.085492 -0.085163 0.025733 -0.130372 -0.154199 0.212992 0.060040 0.038111 0.088652 -0.011982 0.112672 -0.144241 0.132201 -0.153533 0.191299 -0.094491 -0.270394 0.013366 -0.294364 0.073527 -0.006434 0.019220 -0.205137
sent_99 -0.069872 0.144764 0.172069 -0.346118 -0.131026 0.099657 0.093848 0.015799 -0.190273 0.113607 -0.279079 -0.195583 -0.186336 0.112229 -0.038772 -0.159624 -0.044877 -0.152986 0.114245 0.101511 -0.141568 -0.249786 -0.200169 0.056075 -0.112867 -0.067983 -0.032786 -0.072861 0.005909 0.035762 -0.025950 0.051701 0.184472 0.039494 0.365894 0.043215 -0.082163 -0.167594 -0.374061 0.185456 -0.001114 0.159577 0.076226 0.066228 0.141183 -0.059362 0.001855 0.050445 -0.483225 -0.076053 0.008708 0.214378 0.061021 0.078835 0.173228 -0.119043 -0.026109 -0.205579 0.035029 -0.339795 -0.273095 0.191888 0.436322 -0.396662 -0.082623 -0.242351 -0.449734 -0.034063 0.293794 -0.081606 0.360330 -0.190652 -0.088641 -0.294991 -0.251580 0.347912 -0.128642 -0.130084 -0.169624 -0.218523 -0.000066 0.129228 0.261379 0.229105 0.114331 0.267499 0.372679 0.004427 -0.050680 0.176537 -0.174405 0.352374 -0.232332 -0.389852 0.208004 -0.153524 0.280144 0.070351 0.207998 -0.143000
sent_100 -0.249698 0.089508 0.025644 0.062400 0.031258 -0.127184 0.081333 -0.005536 0.310126 0.024630 -0.105086 -0.098631 0.016126 -0.123108 0.066081 0.170658 0.261696 0.091887 0.114656 0.141270 -0.087462 0.178362 -0.043423 0.008422 -0.029466 -0.038769 -0.013946 -0.059654 -0.273480 0.320882 0.040489 -0.065833 -0.037883 -0.033323 0.235814 0.086303 0.060748 -0.190964 -0.121351 0.246524 -0.035582 0.262996 0.061813 0.120163 -0.064527 0.226438 0.009692 0.329522 -0.110804 -0.326545 -0.038948 0.063702 0.224791 0.081842 -0.047554 0.190908 0.115017 0.084857 -0.151046 0.164284 -0.245670 0.121507 -0.206125 0.050120 0.007785 -0.010357 0.177343 -0.026857 0.080274 -0.282677 -0.001008 0.185466 -0.082010 -0.266046 -0.061398 -0.126015 -0.144523 -0.130211 -0.175148 -0.079999 -0.113480 -0.077083 0.356905 0.234544 -0.091953 0.128266 0.043102 0.097592 -0.095100 -0.065049 -0.103032 0.014937 -0.055179 0.071494 0.113037 0.188872 -0.061614 -0.124257 -0.074917 0.037625
sent_101 -0.127376 0.082651 -0.073377 -0.032763 0.072333 -0.092314 -0.115598 0.320884 0.143685 -0.042328 0.069818 -0.004320 0.031293 0.332451 -0.160649 0.079288 0.238420 -0.068521 0.150442 -0.294873 -0.076769 0.022206 -0.028814 0.300348 0.081351 -0.017406 -0.161799 -0.042002 0.072133 0.036971 0.028174 0.340597 -0.073962 -0.150778 0.061198 0.044372 0.245816 -0.217058 -0.073071 0.348710 0.007321 0.129238 0.008719 0.119932 -0.168805 0.023538 0.147788 0.190645 0.053726 -0.248913 0.030623 -0.009149 -0.056406 -0.033160 0.009772 0.167910 0.008904 0.012893 0.050285 0.111984 0.154394 -0.049886 -0.067819 -0.300868 -0.269046 -0.041730 0.014586 0.024355 0.024867 0.136028 0.296835 0.067193 0.017465 -0.153095 0.063688 0.175796 -0.007539 -0.111230 -0.015730 0.279872 -0.108070 -0.188363 0.217518 0.171040 -0.009285 -0.047929 0.269539 0.069291 0.014171 -0.013583 0.014892 0.119762 -0.025964 -0.053890 0.085777 -0.071275 0.238442 0.151912 0.151854 -0.216585
sent_102 -0.172475 -0.073481 -0.234210 -0.172683 -0.098778 0.047012 -0.103618 0.026756 0.162331 0.306873 -0.199948 -0.120877 -0.083331 -0.082043 0.175761 -0.283525 0.000782 0.003999 0.040353 -0.011167 0.145644 -0.145205 -0.046528 0.118131 0.026096 0.146825 -0.125241 -0.077636 0.126229 -0.207479 0.102735 -0.001011 0.082258 0.105484 0.021615 -0.141040 0.199403 -0.093964 -0.159639 -0.280118 -0.347911 -0.109171 0.122829 0.064373 -0.066163 -0.051355 0.012802 0.271889 -0.018884 -0.002260 0.068106 0.147721 -0.165232 0.160105 -0.167642 0.023297 -0.011162 -0.159493 -0.203198 -0.214024 0.127104 -0.040109 0.151703 -0.089177 -0.277597 0.179088 -0.305675 0.014853 0.140971 0.031834 -0.038066 0.004108 -0.241812 -0.041961 -0.107086 -0.192383 -0.207233 -0.342292 -0.085700 -0.119177 -0.034485 -0.019601 0.231215 0.143366 0.093976 0.130066 0.129708 -0.185526 -0.099022 -0.148893 -0.111633 0.089799 -0.194404 0.038204 -0.223910 -0.190058 0.241379 0.055104 -0.076233 -0.227481
sent_103 -0.394842 0.150432 0.232091 0.011172 0.423127 0.036799 0.013358 0.148490 0.389837 0.179261 0.172231 0.181762 0.075631 0.267209 -0.189348 0.373351 0.474390 -0.039896 0.097073 -0.337914 -0.226645 -0.131181 0.114768 0.307917 0.251456 -0.236261 0.292602 0.053093 -0.160016 0.064330 -0.094495 0.459283 0.103960 -0.331330 0.012602 0.127345 -0.173226 -0.192353 0.011824 0.669546 -0.280681 0.061275 -0.075033 0.210365 -0.174849 0.164589 0.088063 0.191675 0.262005 0.122291 0.077233 -0.204982 0.033163 0.038060 0.055689 -0.025108 0.262617 0.017626 -0.067437 0.023136 0.210877 -0.033090 -0.239655 -0.093285 -0.118595 0.136929 0.087678 0.434379 0.070644 0.198527 0.390445 -0.163047 -0.324860 -0.123520 0.088488 -0.103446 -0.099328 -0.051424 0.183610 0.338746 -0.012635 -0.206306 0.295417 -0.037634 -0.345030 -0.064244 0.055305 0.140048 -0.119447 -0.045282 -0.065227 0.367239 0.109686 -0.118905 0.220100 -0.175531 0.236807 0.149178 0.077192 -0.615830
